,0,1
0,6.947086967190533,-4.865436315701135
1,5.196224492469909,-6.876632115778101
2,3.8630295604953755,-4.375082998534195
3,3.749999409669283,-4.303756314855895
4,2.9086478943077783,-1.0819558996283825
5,-0.011128479113029527,-0.5221786316199126
6,-2.0188726416280693,1.1208608315008817
7,-2.02106179536146,2.526227805990586
8,-0.9998653612016133,1.981945343116356
9,-1.268110462956602,-0.7506944843749827
10,-0.1977553234379135,0.6470552856122649
11,1.0641015830223004,-1.0142742577284918
12,2.217852439569245,-3.3691277052606625
13,3.4464486996742574,-3.568202079528535
14,1.9578178631890641,-2.597725970950076
15,0.44880765141979007,0.2021975471903925
16,-2.387608552679375,0.24299866336899903
17,-3.798746751964875,3.6638380612151344
18,-6.093212455911412,5.7764211981273865
19,-5.039651514304301,8.017893401229147
20,-5.179931870287898,6.347723910231923
21,-5.851768314189389,5.739007385915427
22,-5.326284054104114,4.60553769627186
23,-1.7301194405565452,3.2206486654965625
24,0.7020612012399039,2.1045346584682814
25,-0.07998154061213983,-1.1686262494642738
26,0.6675153719398561,0.1703286936597848
27,-0.5252732058162028,0.3660280052815704
28,-0.7551741179338466,1.4675698046278118
29,-6.152038408057748,3.8010789080218887
30,-3.683983342474398,5.777688088025585
31,-3.2898299061285274,4.633983362734173
32,-1.8556212745630674,1.2370644301452502
33,-0.6396947558884105,0.778905528459682
34,2.2602753066958488,-3.7742631418150814
35,4.0761960401691315,-6.028270796693905
36,8.655798756714573,-7.327969727925653
37,6.787714351711218,-8.010896802567407
38,6.6180839466927575,-9.865237276197899
39,6.3719392956596845,-5.967422895291277
40,5.871319925031896,-6.417646987908427
41,2.890633149732851,-2.872107192447259
42,-0.10267142860025383,-3.713267207045506
43,-0.4403541885217821,-1.2766313516123071
44,-1.3381120810158247,-1.4666723003410296
45,3.1470331693902858,1.3001309666040213
46,1.5175330452295377,-3.3696998002420107
47,6.708163315784181,-5.117072450459093
48,8.887980563761856,-7.150122242254568
49,7.856371322638668,-9.513523731206426
50,7.572146352859457,-8.167294928611147
51,8.704325498050967,-8.814400420518233
52,6.458271687267804,-6.826215505471939
53,4.370247092091066,-5.123595021021151
54,3.6361171078909704,-4.245087991246764
55,2.72943828436314,-1.927879521706489
56,3.1027525114413015,-2.032801139216279
57,2.6262848857394596,-2.304065528347568
58,3.9143949867897274,-5.403289239948353
59,7.923007492429314,-8.93331134337383
60,9.040365069816437,-9.564317465578348
61,11.643100430517308,-10.598346254886362
62,12.789903169051012,-11.8789669830294
63,14.493075856375881,-13.91932637521747
64,11.517490009302808,-12.279697067489424
65,7.833758712127846,-7.568594820591983
66,3.68569446510531,-5.0091852536879715
67,3.262345296684633,-0.5836780080722481
68,1.213051911307332,-0.9922951132448417
69,1.3820300643857621,-0.39290160502916005
70,3.7235693715437073,-1.7629913009819784
71,1.9478344530791618,-0.5691869957200928
72,4.950830093242597,-5.58609780160925
73,3.9535214050834653,-4.662643575759532
74,4.648886767075745,-6.820590359620179
75,4.602755849252909,-6.231582782852127
76,2.3388516918027253,-1.0768501563038249
77,1.6439599633997712,-0.7687068981490413
78,-2.2548080779396282,-1.1322069125016803
79,0.5245102585779735,0.11371517280687149
80,-0.20531191686289757,-0.7885887704792651
81,-0.180915192078395,-1.2694572540341553
82,0.4942586513448911,0.4557413960493023
83,-0.34695426528427226,0.18657914388448837
84,1.4946409927096376,-2.1633316910506237
85,2.6958515461263017,-3.635496655965455
86,4.040905823427913,-4.307123574738607
87,0.6448531580350265,-2.2223906255828743
88,0.1472311209465095,0.36929148055878946
89,0.0820215551691526,0.4822141905721965
90,-0.1492894506886042,-0.1716424982066759
91,-1.8960319936411607,0.01975940829608039
92,-0.04803409222521515,0.9527909326579096
93,-0.7602991627627413,1.4229552382349326
94,-1.2714969699622178,1.2487317374374898
95,-1.0248127668535512,1.1776685581164528
96,1.9094489059158264,-1.3609577559436203
97,2.4163786477843,-2.775934748293672
98,4.340825727667504,-3.827805014524351
99,1.1437342491101785,-3.125230912313435
100,3.3987281681141335,-0.8498416409777803
101,5.607939553320977,-6.456393531075671
102,5.786417665002521,-3.5496600983736024
103,5.839451408867864,-6.186668415816245
104,7.0023682474337905,-7.333875987072266
105,5.700169569336053,-3.7453094325590275
106,2.434549780005493,-2.6658909075715003
107,0.6380864120959217,-0.6613702108000697
108,-1.9149088724788443,1.202758910649988
109,-1.0426224701515363,1.8218209130710021
110,-2.496208404941965,-1.0901877316948925
111,-0.3580696629606125,-1.520865308503976
112,2.1478570372689285,-1.3360079692278573
113,3.6878457901565533,-2.942253374419558
114,4.55764872678366,-6.90896168049959
115,4.087006960945301,-4.8331316029971045
116,0.44703814139907755,-2.8387425903591903
117,0.588247730789279,-0.7378674746252064
118,-1.4122752305582622,1.4462713548897221
119,-2.743706762066558,2.353516836764012
120,-3.5042085111880046,4.809005885943099
121,-6.019266896017361,7.139123495120878
122,-4.761154385762589,3.6168362948048025
123,-3.805859933711946,2.3027095079960715
124,-1.7790871450615633,0.5738340608828614
125,3.3874080882029185,-1.395032350507446
126,3.725336619531218,-4.671898095776483
127,4.206040706562715,-5.749554075319513
128,1.0550320727544253,-2.568350373588162
129,-0.1765412398808536,-0.0016690122934578389
130,-3.9076164504790536,3.2881991067431517
131,-3.424095563130272,4.71322897070995
132,-3.713559092868619,2.9154948958009856
133,-3.258885698153721,3.451391693536288
134,-2.9404685269576696,-0.2721373546301592
135,2.1885335726416497,-4.3639614705445124
136,5.722578429957826,-3.5353411601955735
137,6.041328748925869,-9.223869779432311
138,9.569303862661727,-8.30071446086275
139,12.713834307370684,-7.638521611899697
140,8.412425327552853,-9.37608585462538
141,7.495385379424012,-7.2642005819539675
142,1.8375797756231365,-3.4728786392306907
143,1.216631185592969,-1.7210120591820708
144,0.8627078522971412,0.5425073704190346
145,1.3209744973635043,-1.8508997192250307
146,2.023311687312245,-1.359684187110147
147,3.8103854360458107,-5.659284371277672
148,6.602886992631351,-7.045114055985874
149,8.87360955003937,-10.083849100133365
150,11.860269550608425,-8.909119162701664
151,10.212482268986035,-11.07874572200854
152,9.682549666512317,-8.297161622321164
153,7.007238915616405,-8.350111730568457
154,6.467174120451417,-4.720988736104666
155,3.5619820343946342,-1.2642447123835914
156,3.342020891784457,-2.5745748975863534
157,2.6927637520936516,-5.475735375641225
158,3.8486866299342406,-4.626053447517241
159,6.262406383064819,-5.502307980980561
160,6.946665796514731,-9.054015327769473
161,12.096546758374325,-11.023316302510286
162,11.372854276542967,-11.77478570863364
163,14.173554289061137,-12.698809004190224
164,12.76431099684416,-13.487840352917743
165,12.450131932154479,-11.07163990018814
166,5.983714128298478,-6.896355153890589
167,5.016977420564158,-3.8561986110449564
168,1.902164508596573,-3.1516431289691687
169,3.4573584704620415,-3.0356280142371763
170,2.817555425645008,-3.0690116340413245
171,4.293227158209859,-1.9667513182902772
172,4.390453998241898,-3.3765228978273694
173,5.0975988188032275,-4.057754867699909
174,6.0572393721440365,-5.047486739532277
175,5.390612136310391,-5.277971738738829
176,4.928929973008233,-4.635036748948946
177,4.336993073250629,-4.12053568573794
178,2.823005643481278,-1.8687374989289665
179,-1.0321095754918765,-0.7548938679306901
180,0.8638750076976544,1.357948727633485
181,0.5381971032895543,0.3099026190732939
182,-0.5774270564834157,-1.1298763516604635
183,0.5481389931510736,-0.13689648604819712
184,0.6181673717847034,-3.696018543464564
185,0.8520297578875256,-2.4475910037077013
186,3.3029262367803014,-3.52784869141765
187,2.538882867269181,-3.1806499080896717
188,-0.49202997113871333,-1.253443480565078
189,2.6672327628422825,-2.476178617200327
190,-1.1783326346899043,2.470699002387983
191,-1.253772969507715,0.6666154888881872
192,-1.4873005923565457,0.36751172427416057
193,-1.8422327095858295,0.8473991691792615
194,-0.8705202943498919,2.6616656874657765
195,-1.6172799740046195,2.312092845451086
196,-0.8307566466885492,0.7712357339964313
197,0.6374121104284332,-0.7775326599022772
198,3.178626387971395,-1.5396165565387667
199,4.6277571437365745,-5.091713260409294
200,5.723849024203492,-3.3575941589394223
201,3.764081505291782,-3.310746157697979
202,4.180559019676525,-7.038370892828746
203,5.9330389753670145,-6.638249246563431
204,7.503179748406363,-4.461810308623401
205,6.616220768462247,-5.770003966079802
206,4.635259403595938,-6.167454348668408
207,3.550141430335615,-4.424834421787975
208,-0.27588251558466537,1.6722334962958179
209,-2.1322320398432852,-0.3737483139568295
210,0.8481330274919543,-0.13759038541211807
211,0.00607687203331761,-0.7936432704108813
212,0.589668789069494,-1.262684176669439
213,1.5841480329909639,-2.42498693358093
214,4.871927707992833,-4.282417738836467
215,6.892780804878499,-5.922921943888798
216,5.561499045562199,-7.230819230453681
217,3.9586582737576395,-4.95263339831612
218,4.715505691299139,-3.0973082705278387
219,0.35788325477218363,0.14864954605390332
220,-3.874319464162524,3.1570143858955886
221,-4.873633571391968,3.0703914979400695
222,-5.591420709188277,6.113493736004617
223,-4.440503023911414,4.05945066414717
224,-2.528453113828044,2.8347945405139563
225,0.0958194495005267,0.33691530229720845
226,2.472401461592909,-1.485436143052996
227,4.939833519355833,-4.372154617775074
228,7.495612577386486,-7.798750499329933
229,5.174928224221358,-5.072664509301922
230,1.257105554374461,-2.4920949587594823
231,-2.1717528160948203,1.095162457060233
232,-3.4442048798077525,2.5489644053482143
233,-4.595812697298598,5.1748469033930995
234,-4.5373010777283245,4.713269901929673
235,-2.829183626817762,4.15367089603124
236,-0.6192189922342717,-0.2718508609443248
237,3.9073745839206815,-4.464582035648268
238,9.0447657072885,-8.753276379080278
239,11.845279270077397,-9.843317303640829
240,14.214875480032635,-12.822658139316843
241,12.557171698356663,-12.665462463218239
242,10.827876482691325,-9.763146857959489
243,4.298426797547665,-4.670652568935178
244,2.9684215510943606,-2.072369135578925
245,0.6517708708349079,-0.9841073984312385
246,-0.0501459838088045,2.592373624973759
247,1.6427624244242562,-1.4235926573830369
248,2.797195488792962,-3.1900918371353733
249,6.935296805422624,-6.323870129322575
250,8.304532821397004,-10.005799265457728
251,10.598709551453558,-12.261544253425308
252,9.520429827028,-10.986322150820529
253,10.908224133489067,-10.663430931821434
254,8.350635595304945,-7.130074650044172
255,3.5908221682108077,-3.004881496993474
256,2.236232527928145,-3.299455023668002
257,1.8259360371244855,-0.7659655572300277
258,3.020810718286223,-3.2634498584893694
259,5.315743928432331,-3.7154704675170147
260,7.671783574578962,-6.737811910553878
261,8.94051841966297,-8.861855797741212
262,11.40567007990579,-11.837383441814971
263,15.008458082075357,-12.478587124458922
264,13.969932888423997,-10.924317410836256
265,11.951424160328335,-11.39953090327608
266,11.401952158468989,-11.470425660349365
267,6.653964047783584,-6.69977489439182
268,1.735652816260369,-3.104721433442104
269,0.5284939564274641,-2.596158387019228
270,0.7268595382829331,-1.5817452030326498
271,2.8700914344623065,-2.7640706747944916
272,3.4986609897234815,-3.391210608901049
273,4.7646204172343705,-7.654577911566356
274,6.131610923716394,-6.7258263373448095
275,7.164555285638487,-6.255725147720009
276,6.147149642514732,-7.098808395132226
277,5.737369167363687,-6.776403472560827
278,4.537778348353161,-3.2283877597177097
279,1.5545321767220917,1.691872350491154
280,-1.117137000803503,1.1844564879973187
281,-2.7866503185390887,1.160485537412154
282,-1.5086385649964789,-0.34810633917317113
283,-0.03612040192649579,0.6196924066180691
284,0.5219653180119929,-0.0645948515194277
285,0.015511759709858297,-0.21012808636169994
286,0.9443888676069063,-4.265730130247809
287,2.721957695079169,-4.251932766796144
288,1.9396998030630745,-2.6596100707029104
289,2.246011482632022,-1.59706317663364
290,-0.9474289811416069,3.7074931012459005
291,-3.8809461933720737,0.8834454227777482
292,-2.113305498304161,2.466283781039566
293,-1.1491511321364583,1.0969091723157252
294,-3.8565631951548207,3.754195094044168
295,-1.7803346602209256,1.310016139056293
296,-1.5179156104225688,0.316369810364164
297,-0.001629983666803142,-0.46029904121542586
298,3.7354163930281983,-0.3796727398708307
299,1.2894018414342305,-3.836008356160583
300,4.062891625372904,-5.231949899957332
301,0.7508751687529083,-2.786746570804477
302,1.3976887204014359,-2.140914965980213
303,4.534858312549798,-3.7810267521257455
304,4.782625424300855,-5.591886223934996
305,6.319123707459516,-6.1905237494658465
306,8.34774418030797,-7.4402695574712245
307,5.588260742545615,-4.181666560101322
308,3.735677291377583,-2.467150675591189
309,0.4445370298163174,-1.595981221236963
310,-1.5426898707906846,-0.06385780993077322
311,-2.7073632902410356,0.9668435772241277
312,-0.34761446434594895,0.6246011890640839
313,-0.7498759296588322,-0.8289796548516362
314,0.6109409438549908,-1.2633808695174447
315,4.575050986561454,-4.614821224583391
316,5.896379333595943,-8.6884685427367
317,7.552857802924475,-8.063695041634547
318,7.536103568843082,-5.121235674572457
319,6.207428133937798,-3.003890647273549
320,2.9769090650573506,-1.1271816204355793
321,-1.1910585848349875,3.3835917110613805
322,-5.708541315512291,4.5078779059605205
323,-6.280065737128408,7.693684868744232
324,-4.152995679609416,4.4730516261928654
325,-3.181502400594956,3.4246695433910235
326,1.1069776807920597,-0.5463989248019103
327,2.707642078517922,-2.9416824088779414
328,7.156015876446801,-7.166032274104587
329,7.609484597188773,-7.958232967533392
330,5.644735333572463,-5.553819813586372
331,4.3634819725764755,-3.7338649922673683
332,-1.7038794296760762,0.18805894233301415
333,-4.9079977743235235,4.4722817867790345
334,-5.1246934120015935,5.615511405602727
335,-6.00204941835377,6.681404241029248
336,-3.4998972312246863,3.066238900577303
337,-0.3048044610510298,1.6553084265282836
338,4.210414497126233,-4.636138429279907
339,8.182556588018887,-7.493377752154371
340,9.444196992581682,-8.693569792744023
341,10.238376421270912,-11.236312669939243
342,13.14343754631198,-12.311404175082913
343,11.291277356717458,-11.15496148334923
344,6.91905768418795,-4.90457788290158
345,2.0417856720727183,-1.4780847422243744
346,-2.793991151794814,0.1801526638624638
347,-2.0452798176680216,2.4943624990762787
348,0.32720164019114784,0.3950055802847611
349,1.253547379036708,-2.7212525173216866
350,3.9437025293952592,-5.9316829523452315
351,10.126564899390967,-9.279965145905312
352,11.4729339347878,-11.361909212158071
353,10.688114371546183,-13.293080576680298
354,11.215501914100685,-9.389870100256207
355,8.817308091531435,-8.406153836904652
356,3.6218742078523616,-3.197338952109192
357,1.9993391185182323,-1.4054834225445005
358,1.982098739700991,-1.3690653199644494
359,2.1931417503723223,-1.7059834941256633
360,3.6974750085687833,-3.8948925139473434
361,7.618517490197795,-5.694740304757027
362,6.260042782741028,-5.971376801967507
363,11.326189650284995,-9.858418878501169
364,10.527836528456687,-13.380391502170609
365,13.24594748854551,-12.527703899099055
366,8.989067565734084,-9.465598914885172
367,9.337475654029387,-8.026720976491259
368,3.566038595248606,-4.343418610810306
369,1.4093118102069317,-1.6289312959518434
370,-0.11847366020855443,1.105401009224529
371,0.9250831507932296,-0.6082736376551674
372,1.4377603221429214,0.09765376876200924
373,2.7179871324546605,-4.55448759025361
374,5.289868964594152,-4.295701005459081
375,5.416063792805655,-5.136791057536346
376,6.762684062811191,-5.863785905856092
377,6.548702687469611,-6.6466897602257795
378,3.148839950357622,-4.137613229657537
379,1.7827090904801581,-1.8309647552882566
380,1.7173045579897233,-1.6642528882279373
381,-0.19558071729920729,1.6467661312794384
382,0.2074032966965424,1.0900190670090435
383,-1.9525367314507067,0.7348281195632914
384,-2.283495475386932,3.1503461609359027
385,-0.5207572668431804,1.9011857064882647
386,-1.3466777554732696,2.4576273822824573
387,1.4010763469588123,-0.9014262825227695
388,1.195870611120264,-1.1675363847484657
389,-0.1646387965617254,-0.23177356681052344
390,-0.12423546806527036,-0.8238512455679672
391,-1.8380685960337595,2.3105901031846567
392,-3.4540945468421222,2.6094318784097172
393,-4.9924866455666015,7.256410965547476
394,-4.822747751631781,4.335214912490127
395,-4.955252486885822,4.239013406787754
396,-4.918206444211824,2.036164840912485
397,-0.371934451691811,3.5222277868061775
398,-0.7460365566363769,1.8868488287592686
399,0.9746598865716811,-1.3843704098884362
400,1.8636855248720323,-2.1718664274506514
401,3.177264645533417,-2.3559173737491577
402,0.39770266289020617,-0.3895719184077077
403,-0.37842285195744346,-0.9907762028905696
404,4.111457572972842,-3.6193739237188542
405,6.300801688584455,-6.183162269860224
406,7.338581161745405,-6.000166243006216
407,4.4945007725204045,-8.03645085698228
408,4.505225098967414,-3.9774175432366885
409,2.311490862040744,-3.373822946224427
410,1.754348241457439,-1.2723987648473625
411,-0.07623713301478457,-0.15204242837829052
412,-0.34239331191514966,0.32461731260135174
413,-0.22596942895743047,0.6345688263440736
414,-0.14221904397071314,-1.0602793458357171
415,1.3728643204247402,-2.191785641362692
416,4.0624913126079045,-4.16433741103397
417,7.669602913650747,-8.500229176617692
418,7.881660039715993,-7.567884206597808
419,5.398044501040336,-5.69890931737124
420,3.2970468378708846,-5.223154506591558
421,3.1350485407254176,-0.27481767794934064
422,-0.6573606292465541,0.5495081060099167
423,-1.6753248315529223,4.131030077640814
424,-3.7840604038148515,5.684839091015844
425,-6.22962464678546,3.4321639268118376
426,-3.925501904966978,1.8600043583783235
427,0.05663504949966419,1.2861419310425444
428,3.234235514535285,-2.852220887912675
429,4.779523667606918,-3.3653341803432233
430,7.960195565386247,-8.15626305753544
431,5.803805061352001,-5.352916748026811
432,4.235075568965171,-6.297558287852274
433,1.4934870136252294,-2.034821347495157
434,-2.1404072743178175,1.9299834125618611
435,-4.175961573155158,3.883853594501518
436,-4.860613906069379,3.641420254702496
437,-2.4086960558264643,5.443741780526061
438,1.5056459466969663,0.5310991196268076
439,3.9997919090470364,-1.4267349833406935
440,4.8002561408250815,-6.351640630956924
441,10.272151002998871,-9.47194294995
442,11.786962633928843,-9.749235563959369
443,10.451215705350592,-11.939272860017248
444,9.792803653352856,-10.37873058233836
445,7.074365224925727,-6.040180278950079
446,1.8471473114191304,-2.5935677910417634
447,-0.6770713307009514,-0.285656723876186
448,-1.3248198656890442,2.499902953461826
449,-0.8858707616723223,2.1961168875868817
450,1.7734239558706772,-0.019599575405371966
451,3.8225931124092747,-6.09905295773876
452,7.766416204736722,-8.956853498072348
453,9.952934414404577,-10.337197030928568
454,11.939138343750418,-11.29842761684861
455,9.271390016391347,-10.398586792174136
456,9.092687663540437,-7.295266266566955
457,4.777223112789378,-3.9147390657995684
458,1.749934768465695,-2.5442995276844114
459,1.9530172093976848,-1.0931248232192978
460,1.5575722290732998,0.5208968335874996
461,2.63179778841147,-3.372302817182539
462,6.142406320427835,-4.544328810678264
463,8.098403174916795,-6.291146111970089
464,9.861886177385474,-10.175151068286475
465,11.447022814765843,-9.971161745736152
466,10.862215659467566,-11.868969172449425
467,9.512039954887296,-8.15602359725529
468,5.699980663704803,-5.906778333763599
469,3.0638504398474686,-2.5813391632045533
470,-2.11486288441168,0.958676838065563
471,-2.4146348624420253,2.9649492540520677
472,-0.04178244692606428,1.8117878875426874
473,0.8657343313159335,0.4019988623938756
474,1.2413061443232858,-2.051532013556468
475,2.3094730978708453,-3.5617566575427944
476,2.605034573561559,-4.413539869059575
477,5.430347611383926,-4.408467653319493
478,6.050702052719242,-6.880309397906652
479,2.709093807618604,-3.2216055017374625
480,2.4090078204833176,-1.7374161620852822
481,-0.9176287371226556,1.7859087534259794
482,-3.234780667729595,0.8576121886871438
483,-1.9091827204487726,1.7919817427073936
484,-2.718508608530238,2.5679282675336714
485,-2.211483841648693,2.8879982899391066
486,-2.0632734872940754,2.599194220054287
487,-3.465873730179186,2.8228926593582644
488,-2.3876264489805252,0.5376088738378566
489,-1.5493288366238107,1.5812777453582636
490,-1.3311978025382925,0.7406303581231574
491,-1.4589222545340517,1.9299681197429985
492,-2.982221837399015,3.7522665846586065
493,-4.625074406672304,4.344572171834283
494,-6.413165082983818,6.766798356191762
495,-5.035175950840328,6.250467003183266
496,-5.339880529922984,4.836767196059786
497,-3.897334273235233,5.2197923691551855
498,-1.1194047474360662,0.590863464780409
499,-0.45046397905088686,1.57095459029407
500,1.8569642461584381,-0.6533970344736764
501,3.704787930691197,-1.0732713116342507
502,2.5170653048481775,-2.771754233140995
503,0.7345663262407117,-0.8608711367714442
504,-2.229034051668746,2.4592858854539275
505,2.1225216345351265,-1.3282118901017435
506,2.7803936538108416,-3.7629079720388976
507,4.056181056202048,-2.0271902337463192
508,4.507445694331669,-6.253547450347783
509,3.5705876323426526,-3.3352224216318724
510,2.5791597142257925,-2.187319751078057
511,3.444296726494849,-1.90409432179226
512,1.4380305952773507,-0.0802575028696122
513,-0.2823742149244126,0.07881483224847383
514,0.2238066465171471,0.166453254217562
515,0.022948606543027467,0.11445759265852729
516,1.9727614989070659,-0.2860770612135577
517,4.434266364276064,-3.2937460067213506
518,6.060975925990097,-5.4707074614470175
519,6.5937015150400695,-7.955419893742851
520,6.621306055152885,-6.677992442407331
521,3.479243295533234,-6.043369667529181
522,1.292096259929487,-3.9022847769602946
523,1.6499926743781916,-0.8857495002866091
524,-0.5603128563930326,0.8599819587663496
525,-1.095729855200651,2.7124252199316286
526,-2.7568901598984077,4.165066071203869
527,-0.5903815947890831,3.413305248161325
528,-0.27110284550906105,1.5563126545015686
529,3.2173758655276044,1.2645419123824448
530,3.303458372477809,-2.4074109723511534
531,4.076106793243261,-3.493656746640367
532,5.220938066952371,-4.716561984792849
533,3.9748541395183143,-3.613661739936125
534,2.5803794284244534,-3.5359691505530146
535,0.43752690669916655,-1.0044597873006786
536,-2.872113122014512,1.880261739516366
537,-2.003929962547489,2.4022757480017596
538,-2.7411242848155783,0.8596868240207896
539,1.0989341172553013,0.8212530117192797
540,-0.45802039175111176,-3.042805593807238
541,4.704391221162128,-2.0710363786778743
542,8.05165451731122,-7.0066285385583775
543,9.840225161206938,-7.69128645410923
544,6.910345467527361,-8.59203142434632
545,8.240064151297377,-8.518248713937705
546,4.321949671163355,-4.306047224880991
547,3.0955480352807063,-3.150306424721378
548,0.20042948605068603,-0.9879695418827262
549,-1.6355399858504251,0.863720991068937
550,-1.4381224001668613,1.3550859407096763
551,1.7584034417152534,-0.26986934471757085
552,3.223743757465036,-3.0873545735027865
553,5.921882514982765,-7.147155248811541
554,7.789585996401572,-7.569813887415304
555,9.342789766915093,-7.938843067179945
556,11.146191675418393,-10.013793165231904
557,7.163827406859942,-5.128006306074693
558,4.112764408743328,-4.19987732287587
559,3.944640512960759,-4.432753749140277
560,2.3616743829458513,-0.8099147603274444
561,3.433153239743165,-2.976238144757534
562,1.2069520828284754,-2.5846612487394314
563,4.6237831398552895,-4.278272845737877
564,4.292661078323971,-5.278682809542732
565,9.041990139487833,-6.467461769575789
566,10.21519638656446,-9.826361642432301
567,9.135660294456796,-10.214481817211466
568,8.462752756199604,-7.5905485354692175
569,4.5944264274735875,-4.877478107431401
570,1.4005161535985413,-1.3989128047873653
571,-1.7049954944346282,1.8518234780209268
572,-1.732747439335986,2.1326910114125774
573,-0.5737762053789794,0.6629309773873895
574,-1.356392346139233,0.5984847984031042
575,-0.22790846498345946,-1.3441692042278108
576,-0.29923942843648754,-2.7790457109408417
577,3.0639295607217805,-3.3322246016584987
578,4.688912547071909,-4.865329636835125
579,4.21875106328247,-4.553339865681018
580,2.034489261744514,-3.8163590456988437
581,1.0190560583391441,-2.804311781402066
582,0.7522173956226381,-1.0681753517295198
583,-1.9154991408697644,2.2923059531521583
584,-1.518902583783048,3.502119865142703
585,-0.353613700337039,1.7238914656151476
586,-3.1016003124152904,2.66807055596251
587,-4.614824917439284,3.025111239634583
588,-2.8686581282957406,3.5190742066291407
589,-4.222615020991035,2.90302789830396
590,-2.2190917514587216,3.9075181499844684
591,-3.4601070226400377,2.2627123985014754
592,-4.4601254057693716,3.827444096493003
593,-5.741029766468812,5.6552380877593444
594,-6.306993177078579,5.598233116952952
595,-7.236184110644197,6.439702745778292
596,-7.912546020429897,6.478671970049568
597,-5.926220873873652,4.650508159942388
598,-4.483162666937405,4.0468802631782275
599,-4.01397763282317,1.940284135577969
600,-2.096645378047734,0.9038753055131481
601,-0.5680802641660886,-1.1795558261702161
602,1.8349121384795786,-0.5156656738716164
603,0.5683567343554093,-0.3517521322105652
604,-0.15348588998113283,-0.14839332670316002
605,-0.6033986657973733,3.4271795866668313
606,1.604781074597329,-2.450264218354439
607,0.5226762864917164,-2.3950764145741865
608,3.9447022650465122,-2.4137332392609734
609,2.235167801486656,-2.8654976085935866
610,3.271239997324233,-2.427045331921935
611,0.993054339830435,-0.7538346487548084
612,-0.3791087811405887,-2.752780475231582
613,0.0868697499510537,0.6925590821040821
614,0.44566343050657964,-1.0160385552658138
615,-0.8324500188807511,0.8506180061475608
616,1.377990884098248,-0.03816351526536299
617,-0.2835785834851715,-1.1835217003704006
618,4.684336249260264,-3.546759641511714
619,5.968036529139902,-4.812624313744032
620,6.932630561814806,-5.046680882403239
621,5.122254958688858,-6.106850019623192
622,5.409312138016261,-4.036068199430495
623,2.845851210173301,-3.2507519528264264
624,1.5840561143074647,-1.2882236781853305
625,0.9981231297891024,-0.6179339848402485
626,0.03697910199939547,0.9833224869024331
627,-3.065510726232511,4.041990015547378
628,-2.3334498765950964,2.6792220419647004
629,-0.8022816815371983,1.0188848576085727
630,-0.4478798972281779,1.2352173937426674
631,1.115167296405396,-0.14719605240920952
632,0.18818689456960996,-0.7171327407400909
633,0.895906470691038,-1.1025902168861181
634,1.6542343471482301,-2.855957539819501
635,0.8529099150014315,-3.5717426744597724
636,1.2432096176003493,-2.090862183243487
637,-0.8015327025077674,1.256718898061592
638,-2.1773513115514853,3.7254351101557845
639,-2.598861696244243,3.0818613724981123
640,-0.4200126425062853,0.4436156125483169
641,0.08256827030701389,0.39140833425665356
642,1.9148792872932856,-2.042885745452306
643,3.9266871625152895,-3.484132295145997
644,5.119850535493929,-7.1364556435942434
645,6.412870882486415,-6.149282427984721
646,8.475707614885106,-6.928999660794284
647,6.056550349048307,-5.470667394127395
648,2.3626245202800216,-4.421487831932649
649,0.700290842910402,-0.28684730789205387
650,-1.466374093896618,2.642727299751126
651,-3.1255299751775008,0.902073975939669
652,2.0249846651853574,0.5138939241608287
653,3.0719154697639754,-1.9637611502517098
654,5.343065670428129,-4.338836523652277
655,5.1467239279901245,-4.994176677430914
656,7.88152774320021,-6.5342241189943495
657,6.175256011355035,-6.663710790542273
658,6.252485652422986,-6.797520635461367
659,6.431170539399196,-6.1648313306687355
660,3.083499775364071,-6.331178605775427
661,2.240696621497689,-2.8077264148399586
662,2.8256703257642997,-0.7926818194140279
663,4.848894957573609,-4.549382981392339
664,5.452722735040588,-3.59713512202401
665,5.826209972530687,-7.382460022817824
666,6.816704348512091,-7.460354927786659
667,8.376420484757187,-8.208917976372827
668,6.954192534830827,-7.775935877421731
669,5.467097673753223,-4.456760091423737
670,2.763005953613898,-5.331611145769551
671,1.2514575148694982,-0.46308882251906097
672,0.08712742844132235,0.9755580150845792
673,-2.2899686598150595,1.0406751826703378
674,-0.27761984329285994,0.6289228228214196
675,-1.477808564197391,1.6997244950911634
676,2.2640834765862214,-0.26408290151060976
677,1.7829450881142406,-1.7127477330035084
678,4.675877473421109,0.12713396684891665
679,2.911257998462151,-3.2657931814538372
680,4.669729077975551,-1.0697212284678208
681,4.2207706412210255,-2.0826864229844766
682,2.149684511191759,-2.5739045660953996
683,0.4364718199527049,0.15700011917725962
684,-3.1257055638337334,1.048688188378248
685,-0.8086222308429195,2.0203594762417594
686,-4.284016455753523,3.38664623309313
687,-4.31420106469898,3.9380687479063003
688,-3.533600369403918,3.8950574878957536
689,-4.894214671150168,2.8821639376733157
690,-4.24142450746094,4.150381445052093
691,-5.143102282990204,5.445154679512337
692,-3.8142115246271118,5.175515487035168
693,-6.152555895987052,4.88637382372904
694,-5.205339789583151,5.0230269625169655
695,-5.768898059932135,5.153741779640726
696,-7.803362835270987,6.188176088584161
697,-6.440981846478826,7.712174322771696
698,-6.269113729575651,6.2895712589196835
699,-4.5617384801739576,3.6517180742075737
700,-0.7314581955141879,1.7444925732893994
701,-2.713155682454961,1.360744745875156
702,-1.081320599131146,1.747225325401269
703,-1.3902783626309654,-1.0989985679609395
704,-0.1125557126930469,-1.03259533285452
705,-1.346390780449283,0.511454179528908
706,-1.9903198008480718,2.3330318977133433
707,0.06550121389055116,-0.5008657212902197
708,-1.1640427734913337,1.503718381640271
709,-0.6851946160784772,1.5862309774700698
710,0.1509158961508627,-0.23788815936456245
711,0.5574416185740295,-0.9912105646087005
712,0.6259188433184013,-1.1628110511626275
713,0.6903465529206172,-0.17676812065059203
714,-0.9161253198591954,0.39597748281126083
715,-0.862271421053987,3.1243635544193027
716,0.12161410743658507,1.2572498575656659
717,0.7472190885223391,-1.7320752566061357
718,2.198100341540267,-2.1682161902372488
719,2.8907063699861975,-4.398207274065009
720,2.9380909245193343,-3.95197133943928
721,3.9906999759905055,-5.5248090106784655
722,3.021266467891742,-4.722492607231254
723,4.018584280801386,-2.3629185643768706
724,2.8851234771317005,-0.15793138290632197
725,0.9017089852170522,-0.7993449839836712
726,0.806944288209601,-0.953815209621145
727,-0.3312762592861259,1.9234900488364313
728,-3.378303855303298,1.9260813350860302
729,-2.7996563671573846,0.7679726084482911
730,-2.8291426995333815,2.286342024645381
731,-0.2340569961195871,0.5061641336712032
732,-0.3507795617577093,1.7279013409530346
733,-1.155597197921549,3.1126381699993346
734,-1.6129283604288789,-0.1879610701875126
735,2.7124197058003228,-1.554279669784928
736,2.61538451438712,-1.074218219418684
737,1.710910907966822,-0.8299240173544931
738,-0.10920889414471677,2.674903197221237
739,-1.2256656661188974,-0.2829597093393097
740,-1.885041058806062,1.610035556745189
741,-0.9661274625512143,-0.18525314910584365
742,0.6136495406721372,-0.8774223749675476
743,-0.25345015021680584,-1.698189064171524
744,3.129343835075997,-1.633158884025585
745,2.678207497654511,-2.4205794023222245
746,5.5684366901157984,-4.437945431604207
747,3.8107038962226847,-7.366647468921847
748,4.698978988265653,-4.807938889569192
749,4.237645940185847,-2.422062270568298
750,1.2642703275763199,-2.0828471844701895
751,-1.418411802291398,1.8540344886499027
752,-2.071518897445694,3.587238030190526
753,-1.47593286429261,2.7233722370274847
754,0.29136945923810603,0.04472343892078334
755,3.50662812886721,-2.295497690066171
756,2.3983345250363888,-1.9324984555518183
757,2.399449453599187,-3.552153282394062
758,4.95888592062685,-5.318910870370184
759,3.591263864356866,-5.2604122044610655
760,4.085238392813858,-3.9519152033859823
761,3.9755702391171175,-4.304839733747819
762,3.858354849926034,-3.3502272354452995
763,0.1776953896578186,-1.884449033356535
764,3.4170340648033593,-3.5841197360000123
765,3.392029272298284,-5.550580720058123
766,5.412682629755314,-4.19281179083899
767,6.19549865672376,-3.956358206726636
768,3.5378027562138343,-5.646961761797731
769,5.610107563825724,-3.0987275844966202
770,2.863838384100795,-4.613708068200899
771,1.7933119493306084,-2.384574855207051
772,-0.8018714928613423,-0.40420116436883036
773,-0.8786146406849993,1.503922461254596
774,-3.9025877027570637,3.117138655717411
775,-1.3596841921676688,1.1434312920465237
776,-1.2755139159118345,2.798332761638733
777,-2.679164948622591,-0.4913240255453274
778,-0.5821653384486385,1.2960772540137566
779,1.4815779371476685,0.17979360928632035
780,-0.4948215550630578,-2.7668206026445796
781,1.1236279619214133,-2.261958141895609
782,3.2558846249281115,-4.388992718276259
783,3.9072061960734854,-2.5637580106217532
784,1.2685740367683243,0.5410622723211052
785,0.002036912180373107,1.0223746198761745
786,-3.1610657847698804,2.435615371492067
787,-4.497029507485022,4.463273628128418
788,-5.123532939843817,4.1744349106310805
789,-4.893078982688716,4.7435911559317985
790,-2.6464108491479417,5.017230010565846
791,-6.047087296426426,5.976302105696391
792,-5.755032541739029,6.609977619830344
793,-5.723152545928106,6.315966989447374
794,-5.354026075068256,6.462774341964445
795,-6.195604606613987,5.2782233182747795
796,-4.912589624909991,4.672494521036545
797,-7.543150618869947,4.783379187522919
798,-5.361293845262,5.112747793953489
799,-3.936399478112161,6.583808181938362
800,-4.9055604867452205,6.390182377053432
801,-2.9969140746832066,3.585393206407273
802,-3.1109821485427362,2.668644027125068
803,-1.2123684302869433,2.0161578465731282
804,-2.002629189334265,0.8973486946789684
805,-2.092622687909458,0.7259822883639828
806,-0.4535637671978954,-0.8052929541851437
807,-0.48412492725943196,1.291774550177118
808,-3.5832965053844044,-0.044659853870338995
809,0.3793755622695647,-0.1263413923960539
810,-1.5999649413643435,1.4956989251417585
811,-1.0329439666350024,1.985960983549706
812,-3.112872541141171,2.19942991044819
813,-1.7266144252747329,1.5661632219161419
814,0.11507470891906632,0.7087471899438337
815,-0.8934425257190481,1.3881033719902263
816,0.9308560238883333,1.321221871220736
817,-1.827500807359217,-0.08907436438391284
818,1.1566267905638825,1.1050148416778907
819,1.561898594514432,-0.755183205039397
820,2.073698004490624,-1.322839697983933
821,1.7166973389484221,-2.4831066309065406
822,2.313643306720965,-3.444745907282756
823,1.071570687642502,-2.86924006151
824,0.8752660955315743,-0.10942041099420136
825,-0.16566660541893855,1.9001007534979286
826,-1.7465011958959784,-0.39677491093416484
827,-1.6396679869479514,0.6270769531372337
828,-2.6682103325562703,2.1180675382751875
829,-6.0329610557034705,6.85829899363025
830,-6.460451012003649,3.3274986974227136
831,-3.949109110950538,1.9747351542555422
832,-2.380235966301477,3.96536937033743
833,-2.0307828766565996,3.5880215418798937
834,-4.076849328491883,3.304314935060799
835,-1.5710426541268014,2.205550322793687
836,0.5724520788804883,-1.548094016174649
837,1.5679603700692968,-1.5084423688461146
838,-0.5645462717405701,-1.116656787895733
839,1.1518966110501452,2.198934505275276
840,-0.28014443792598864,2.0981962031842927
841,-3.8698915105648353,3.145913726144403
842,-1.7674570210856002,2.0336969092961046
843,-0.7847922250020086,0.40554114564082805
844,0.08805842659494953,1.9964813999379438
845,1.1185519927090617,-0.7786806033993843
846,1.7288341349820984,-0.06753727712760024
847,2.7436174634464887,-3.7767097768047124
848,5.036968007856287,-1.5046932440054221
849,3.127434900774404,-3.496291322502229
850,0.5854670442914214,-2.7244141843384417
851,-2.5196118467902977,0.3227068128834708
852,-3.1031140846413843,2.361256784901617
853,-3.892232482344474,4.7348300661022344
854,-4.886782494372633,3.4061919518924606
855,-1.0317223738490877,-0.5799006463154763
856,0.4238260740299141,-0.34143929383282307
857,-0.002586514305444848,-1.62741602540166
858,-2.250070410488485,-0.576822989873431
859,-0.15534240314318873,-2.452583919691439
860,2.339706087570868,-2.74900237420208
861,2.0393835403417837,-2.5991627231454437
862,1.1482979789583814,-2.9992634533465568
863,1.8439884326553275,-1.1840635881295243
864,2.827425537632423,-1.652777459761709
865,2.012536648554275,-1.6288221755809744
866,2.787512731388354,-3.562868371906604
867,2.400578252556162,-2.521572396347797
868,3.001893078102478,-2.0023422675072418
869,3.568827772604907,-3.4781108394377576
870,2.6244442834516164,-1.1571769553273268
871,1.3727276186172919,-2.6020389626086367
872,-0.08660962946148335,-0.8245630465871407
873,-0.5666610101020241,2.7856131480587516
874,-2.6042293507138967,2.4029587331373676
875,-3.859799549840745,3.1747299970313043
876,-3.943815298436926,4.052166099844472
877,-2.958242785943893,1.599991230265558
878,-1.9025861254966414,1.4951157500138739
879,-0.5576023360852301,1.2438884725875412
880,-0.21017920116669936,-0.2926042818535687
881,0.7089852274730063,1.4896136280613577
882,1.8192445377417932,-2.2132726723151643
883,1.602021057687537,-2.6154194395104913
884,2.7802266184058757,-3.5432100416727037
885,2.9779011227808243,-1.0412826991474662
886,-1.094895526019582,1.7480706303486853
887,-3.0576276300046423,3.157059414370334
888,-5.224543942120247,5.3335233299075595
889,-5.400298561736225,8.132185533606654
890,-5.760568989811399,4.044154771039002
891,-9.342609837920264,8.319490295997811
892,-7.088597347418233,7.75690725022587
893,-7.4913598473312755,7.179548319303888
894,-7.116930373858008,3.22813419496354
895,-5.2718671875362,3.6084208678251457
896,-2.6638428061462567,2.7693198137871775
897,-3.9208800355989126,3.4865993909639985
898,-4.647185437911394,5.811985132181575
899,-5.0239106055329845,4.72019566636728
900,-5.779814496111175,5.192375469026468
901,-6.851088396515658,6.165168973250513
902,-3.068685920797771,6.37106063468333
903,-5.568158328483283,4.932396805255713
904,-2.0173480366661485,2.2506809397874967
905,-1.9004247980838023,2.437302629770577
906,-2.345926003972236,2.901927244899657
907,-2.152713229465685,-0.15475828196485228
908,-1.2650255215464752,1.6388532603383796
909,-0.427974196328354,1.4589448497633313
910,-0.16460679819416524,1.8119562032896763
911,-0.23262867904050646,1.8585542161706756
912,-1.1116247335589966,2.2588828062185153
913,-3.583106636114351,2.8342570963506613
914,-1.13258994778764,2.239365671700149
915,-1.5627397084259362,3.076592895388215
916,-1.553388651518948,1.600396717199341
917,-2.286507826509115,3.044740042196136
918,-0.7286462783777072,0.6871750043049614
919,-3.6413901983966084,2.1416999556371583
920,-2.378454632239372,0.8950969778827537
921,-1.2854780190251631,-0.15612618522511632
922,3.831103099911273,-0.005143717122443436
923,0.3304490030845073,-0.7294582893794982
924,1.174861015534184,-0.3068505995717917
925,-2.9505326743555185,1.7141022891249844
926,-2.3030850672317698,2.5927547014642105
927,-4.221008175856649,3.6542391862164574
928,-2.340005096376082,5.859266806257551
929,-4.099032607976732,5.078845129843877
930,-5.84311532993796,5.732230340957187
931,-4.373173325936585,5.009781910181137
932,-5.109868656413622,4.7398596192121065
933,-2.771437191402055,3.137020561947864
934,-2.0892285566142337,1.550347573812008
935,-2.215350153335348,0.23913007015422774
936,-2.547836176556319,1.2545768889517483
937,-0.8024158933593855,3.0544887473161766
938,0.32197476448294526,0.7458966276732786
939,-1.330515088060368,2.325564885273802
940,-3.3595664813473927,3.897169047210112
941,-3.5525880973874364,4.580853212038767
942,-3.6675654033208125,3.097750691671077
943,-2.177826481353452,4.555448279549551
944,-4.417436045944126,2.194746033436242
945,-1.5428181571994815,0.09276900869024449
946,-0.5155434570019739,0.7550220523464484
947,0.5786991624078752,0.5123291545010036
948,0.0825377639092714,-1.987111123950077
949,0.5589676328136391,-0.874769424498232
950,0.28191028984176003,-2.4712275066376304
951,0.37533740848534103,-1.085885884365232
952,-1.6723163742380494,3.4460859735643767
953,-4.429440375277393,2.7927330373354065
954,-6.918612274146985,7.1435776103846464
955,-3.5757877245897625,4.344997452387724
956,-2.925635204363872,2.4837692133945763
957,-1.5624958951397712,1.4720890240220144
958,-1.3097277243780556,-1.1698956936967966
959,-1.8746523312494716,0.5861729065667525
960,0.812693503799615,1.5483234012707692
961,-1.0600764948881143,1.1266637204792176
962,-1.8849145275300851,-0.20828886314663775
963,-0.6002015856981964,-0.6330910459133164
964,-1.007624785284062,0.6920014725158886
965,-2.289116926764445,1.4010611340695496
966,-1.5200652415465146,0.6372536209779303
967,2.7738572656721048,-1.4796956852293377
968,-0.38928496850667677,-1.5242131307644795
969,0.6092028834800701,-0.07673156218011204
970,0.26994995119342835,0.09189797703325644
971,-0.652776956261715,1.6719284430321248
972,-1.0463286036103912,0.27992565965579946
973,-0.6063225099114331,0.8861256467584624
974,-1.2158771697023145,1.4890367243920997
975,-3.2044630740686983,4.544006067676627
976,-6.255735778145434,4.933011554542199
977,-6.33543803761258,4.103708097534737
978,-5.164226673081421,3.13282183367614
979,-2.5168416993732623,2.8825605093005002
980,-0.9671548057158331,2.5924413438901017
981,-2.0317178080400624,-1.3945913679687543
982,-0.15508771121811812,-1.333034035932573
983,1.8819805411775552,-2.8771852518229144
984,2.2412990255689778,-2.0928601744141684
985,3.942792173018723,-0.5521078112648758
986,1.4734401623515911,-2.6199298040233967
987,-0.8911291105656969,2.289999190952481
988,-4.270814212466569,3.424623195249858
989,-6.192670119219599,5.369400520934615
990,-7.604506807394951,8.37563133045913
991,-10.388098723187065,7.231285704987077
992,-11.110830659953237,9.803368113383648
993,-9.340525064706057,10.600362317399933
994,-9.1217258533753,6.891459621144394
995,-6.6033113052529036,4.514164379064674
996,-3.4008147542012273,3.244558754375103
997,-5.92985161993171,2.853226917372941
998,-1.9086250389605182,2.4515962584680833
999,-5.031937944028877,4.68524298923278
1000,-5.510666572743068,4.165824702090774
1001,-6.260748911312698,7.382225447053923
1002,-6.032484313286524,4.4525535316855205
1003,-5.851915421294073,6.5866174332961975
1004,-6.77468291382289,5.753096206045271
1005,-5.029710979734894,4.803116787930858
1006,-3.3844331023157257,3.8297511879353507
1007,-2.777365728183709,2.6891661295911837
1008,-3.791803292941685,1.9451733678431935
1009,-2.202334145423939,2.4599804423914478
1010,1.5388370428101035,-0.6507725947924929
1011,-0.8127013065110702,0.520665366005916
1012,9.175947285586239e-05,1.9638689403584693
1013,-0.7344123163821376,0.8604986722042611
1014,-1.6204531510694298,4.307885083713533
1015,-3.90344530104491,3.943885939674035
1016,-3.730049063225226,5.779745063565781
1017,-2.7459562941167386,3.9156762901448463
1018,-3.0117092667823413,3.54304186762424
1019,-4.606290967374202,3.6783708014831062
1020,-2.3434416806545624,5.496454833761471
1021,-2.8609117278886096,1.159153026747891
1022,-0.16858141070487814,-1.0766113187842503
1023,0.04609546178449736,-1.2747391981599234
1024,-0.5303910372502367,-0.9815831434087365
1025,-0.055962527790283295,-1.2790474966723344
1026,-1.1078311490990531,2.375377476174238
1027,-3.4181789530510005,1.494625619704712
1028,-4.962251064342685,5.727924460920499
1029,-3.927162222176067,4.695006172777427
1030,-5.873385913314,5.82307594211133
1031,-6.6392087210964705,7.709903931402086
1032,-5.498792766615361,5.89952730203429
1033,-4.148802363142191,1.8263129350864276
1034,-2.5066197237216135,0.8894487462917232
1035,0.3572519630969331,-1.7762418250004421
1036,1.7086358175719252,-1.407362182820597
1037,0.5660376068034421,-0.32417936322216256
1038,1.3800719118322369,0.4379727160912873
1039,-1.4290660163424245,1.5205110292559454
1040,-2.093670617236949,1.278729882569519
1041,-3.602130040486777,2.8541991003923717
1042,-4.775044156853862,4.188164788078514
1043,-4.144244581407455,3.4234363818814075
1044,-4.478736844341607,4.2846425977143525
1045,-2.7864848164173326,1.5363196786200792
1046,-1.2244558294908872,1.6975272944480502
1047,-1.1452991927329776,-0.8866167600241532
1048,-0.7183580225668454,0.48296906278945273
1049,-0.016540997876972746,-0.3931983500296916
1050,2.315522806752196,-1.1098171083001693
1051,-0.8633747136332958,0.8386077743041934
1052,-1.9126839155974673,1.8244701826559842
1053,-4.11402329688145,6.191359027674718
1054,-4.229190251284413,6.21723941752281
1055,-6.035545345961442,5.040933298912645
1056,-3.7647393783958343,5.062688815777214
1057,-1.6566625155940593,2.3165710938530957
1058,-0.6089260047333708,-0.5640136572014994
1059,0.8952496586462622,0.13436799586007905
1060,-2.3453150144866077,0.8852785726550318
1061,0.1588800584645039,0.3618565994875198
1062,-1.281791404777861,1.0744494021608266
1063,-2.5070790074562894,0.9522381240173773
1064,-1.5055120133042594,3.6881390669387764
1065,-2.657931753353498,2.253953242739143
1066,-2.729400624674192,4.392068321789381
1067,-0.45103681752842717,1.0103757399996802
1068,-0.2062420182153823,1.5454958077301197
1069,-0.7500662833415807,-1.2945082177092762
1070,-1.576310007375054,-0.7877276006537095
1071,-0.5013814737327568,-0.1993303693139088
1072,0.877359903620381,0.7615002344086028
1073,-2.187102513152439,1.2901770700742943
1074,-0.4052877644996953,-1.6872219487078928
1075,-0.6397230193022797,0.6177915181029178
1076,-4.340271675835343,2.8917176350638196
1077,-5.441043448030291,6.0977492753287414
1078,-2.7080689495097197,4.567635750706399
1079,-4.41180367912583,4.912159954074698
1080,-3.141365094216797,4.559797853562636
1081,-4.682914990966237,3.3350583111706293
1082,-2.0300843781254545,1.1289672412528087
1083,0.25734044642962006,0.02002899556217927
1084,2.416802475804455,-0.15647860892937557
1085,3.6442196472230033,-4.634280567013565
1086,2.2884535493843194,-2.791384959677963
1087,1.7133816051624904,0.18949714247735144
1088,-1.070174753548029,4.3876908099028
1089,-2.96148013953222,1.8864618156734414
1090,-3.1171490474499195,5.285163281769374
1091,-7.055555185867671,7.485582453866805
1092,-6.6199703153500895,7.435415504162343
1093,-11.017391196651118,10.097727278788057
1094,-9.65644658006709,10.104802240982146
1095,-6.227284884024212,7.086478417621751
1096,-2.673207990432071,4.71316321073096
1097,-4.265339991284976,3.3327410868309535
1098,-1.6700792526783375,2.184397028413462
1099,-3.8301017136836712,4.6620641596087555
1100,-4.892649608956605,5.140787038372187
1101,-6.837838929365449,7.437104919933005
1102,-6.444072555467791,4.963671823235384
1103,-6.0129973853026355,5.289359926873591
1104,-6.123035850216729,5.222936425831646
1105,-6.118492108306441,5.747800560283407
1106,-5.125083056357988,6.766053814183823
1107,-4.3259279062880625,3.470363112719195
1108,-2.7941318600787426,1.5560343388488318
1109,-1.0234695001506866,1.8204551863798837
1110,-2.8873858116280515,3.3567338034036545
1111,0.44068018994426916,-2.516011699489216
1112,2.1095777067882793,-1.7734814362162055
1113,3.072051449995803,-0.6059438939700182
1114,1.344775845089915,-1.2529170863653614
1115,-1.8279987468680745,0.905069030530905
1116,-3.954041019246162,3.741353879994234
1117,-4.51365600521348,4.193720504272097
1118,-4.3853487553262305,4.279918409127891
1119,-3.987277630539664,5.678462366019809
1120,-5.240726290697269,5.966952501962124
1121,-7.105579220948442,3.4700760418143837
1122,-4.963274841282189,2.0972523259016103
1123,0.6656303732956171,0.5958655329559175
1124,0.6883823860851654,-1.7891414635825487
1125,1.430550770697249,-1.2961200253182676
1126,3.3576708757011975,-1.6217880404462528
1127,0.1272788742877003,1.6802013334172339
1128,-1.7680083955730928,2.355619683850264
1129,-1.8183338416497743,3.1646033897883674
1130,-6.338842143153328,4.656685417839061
1131,-5.865704618595216,6.022541823428836
1132,-4.464570820495073,8.96228654191381
1133,-4.829407168360775,3.285103910604875
1134,-3.2261087078049973,1.5824932197764807
1135,0.5153301626146847,-3.3190962728143254
1136,3.9201374218134264,-3.8515383344014724
1137,5.860370054807311,-6.12231703706544
1138,2.8168930335327937,-2.1902189567776422
1139,1.3303985255173278,-3.5800465219287734
1140,0.1199409197286404,0.25379732168910335
1141,-1.974184357842963,1.2855846918225842
1142,-4.679688073788393,2.0085263390497468
1143,-6.335641407247115,6.346506345550516
1144,-4.969822649072693,3.507141456118988
1145,-2.6856103977293677,4.306303320049378
1146,-1.605503377268569,1.2818183903367046
1147,1.8530775325387112,-1.9082519491380348
1148,1.7580580010230542,-1.6892260111674409
1149,2.422969450054987,-2.309489080288899
1150,5.277107289362944,-2.6915723022080527
1151,2.165286913322799,-0.7946821725516585
1152,-1.254836344365227,0.8579686791719943
1153,-2.3985940896438014,2.103023120763941
1154,-4.1437451684539335,4.010768089164158
1155,-6.794230502448049,4.346105348764033
1156,-6.113461813036563,6.2275710312149695
1157,-1.8175140438441328,4.072213243253845
1158,1.0025017618760546,0.7634805223557487
1159,1.2079085479075309,-2.6143184152509527
1160,2.5749765767725377,-2.8599746092784017
1161,3.161853186675474,-1.2797855073743196
1162,1.0552338706246362,-1.5783726920354506
1163,0.5195268710519683,0.38855910286076245
1164,0.9019516229391307,2.7831969092464535
1165,-1.5161460465345897,1.98485941391986
1166,-4.611017931794388,4.473196238306956
1167,-5.119793158161617,5.382478117787986
1168,-3.052933881695919,1.8948368301501315
1169,-2.916961189477888,2.424251523627694
1170,-0.9483932533817057,0.7491014523718591
1171,-0.3476503565993437,-0.3586481365293154
1172,-0.6728641219586284,0.9906964275680905
1173,-1.3008360217316703,-0.046231331040597845
1174,-0.9559713946974366,-1.591570477527349
1175,1.1716710884200316,-0.7234213065258006
1176,-1.883127411256481,2.932104255781989
1177,-1.9059586982958774,3.869102966200227
1178,-3.8111292682126883,3.6638606264981473
1179,-5.067198997656931,4.524884035452647
1180,-3.4269951726475703,3.933557353166123
1181,-3.010101468833926,4.608723585992505
1182,-3.3926079754838887,3.850465998655959
1183,-1.0426784451779663,3.1003619202527934
1184,-1.373115005339565,-1.8388569147617715
1185,4.247322433968974,-3.0304015956238577
1186,4.467427887398604,-4.936381842670511
1187,0.3344973668487228,-1.4567647163605522
1188,0.4423975528064882,0.10035238964821178
1189,-2.7626555097009367,4.108120294599857
1190,-4.454084449958105,3.6853171651881507
1191,-4.351297980720595,4.663993131386825
1192,-5.923529690307137,4.9370318744439485
1193,-7.739885154075992,7.317910593327529
1194,-8.50678463494061,6.199439121138264
1195,-6.829238411577403,6.56620222905342
1196,-1.3381481415583114,4.402754510592028
1197,-1.08673636237833,3.845812996918891
1198,-0.8022910082413465,0.7687917055438381
1199,-4.825337150894983,1.5133962766343638
1200,-3.655014950628501,4.632572330344479
1201,-4.71744167099127,5.992577213741499
1202,-7.416509227956009,4.582469508189165
1203,-6.579691347066922,5.339215828873395
1204,-5.4102628169383555,6.420840613240169
1205,-7.000955940902361,6.715466556950531
1206,-5.259019868829266,4.325672873545694
1207,-6.003258000856776,5.677644969591545
1208,-2.7157081952698614,4.321984215636053
1209,-1.2355460010182862,2.7685350942023814
1210,-1.2479909428436056,1.5459933921550462
1211,-1.2189342858817755,-0.019782047656215163
1212,3.275883804258026,-3.076849564213491
1213,3.0686846436676145,-2.7622879048865947
1214,2.4356530777579204,-3.553465561951823
1215,3.8753956097086792,-3.367945405188612
1216,-0.35023655619674954,-1.9644240920321274
1217,-3.284005532503361,2.877566889653842
1218,-2.112777917340107,2.4577771395342682
1219,-2.8726458600127835,3.4160925625123624
1220,-4.889096207692224,4.4252494727373195
1221,-5.612612755762352,6.823789605469385
1222,-6.762176590149832,6.017520732974639
1223,-3.890443110427983,4.228183058020338
1224,1.2783485234886018,0.8975701522798272
1225,1.992837423311451,-3.4442573577085076
1226,5.617047929532046,-4.067585308750699
1227,1.8978055057982293,-4.424053557849204
1228,2.645510014108474,-1.1460014183691087
1229,-2.1710552741147926,1.5748468198297827
1230,-4.710803242994231,1.7392562979071577
1231,-4.372869696765302,2.9198506151929857
1232,-5.668829540539973,6.629823455534482
1233,-5.425086179207416,5.093130643071315
1234,-2.912393433609058,2.069598776788969
1235,1.2344384980878855,-2.5326682645915293
1236,3.2918047986018757,-3.31815323181559
1237,7.787004706432215,-7.164312167131564
1238,8.441716154350328,-8.993729805899633
1239,6.039126864575147,-6.035169026972261
1240,4.688577164847406,-4.316130020391882
1241,0.6296322275688562,-1.3585324812936435
1242,-4.932708198648541,2.8519740723977383
1243,-4.990071899097829,3.0927977654694017
1244,-5.575464789279743,5.16837866549391
1245,-4.959045213578682,5.098648044472761
1246,-3.316327807828215,3.803568567003744
1247,1.0026134372693845,-0.6202691478577298
1248,4.5026985218384645,-4.03421080295888
1249,5.566243992566969,-3.7858476409463337
1250,5.64555418249512,-6.0165702422429295
1251,3.953885941785158,-4.556493407198603
1252,1.552771094905019,-1.8106706609278804
1253,-2.031480990630886,1.0569814782989737
1254,-2.768520518974003,3.5588782903455556
1255,-3.723199930739553,6.475511792007777
1256,-5.913606253925839,6.18100602099037
1257,-4.455766342909748,3.9043476073659873
1258,-1.0246177699429146,-1.448571195332846
1259,2.862438000131358,-2.617902107915784
1260,4.861350103657534,-5.307862118703104
1261,6.60598411298799,-5.808977644706528
1262,7.33180151672523,-6.460356446405548
1263,3.8483396791991566,-3.3598039614610613
1264,2.735322675997506,-2.1169781699305945
1265,-2.2151603619492497,1.1227716868431648
1266,-3.6148126034143826,2.83190005178419
1267,-6.057627946897789,4.13391677729542
1268,-4.4921878143943355,3.9437996537119857
1269,-3.138927709817977,3.151453696747914
1270,-1.8805772165372643,0.8088901306594354
1271,-0.46837543889141064,-0.5064241813367442
1272,0.7329772262113218,-0.16184340707499065
1273,0.6310706384915181,-1.3571161609541629
1274,2.5527801745505365,-1.0444104027354806
1275,2.0763618892520057,-1.8314122898726535
1276,1.7411664156823858,0.008260407658055136
1277,-0.021916036563211144,0.30889987801801644
1278,-2.6279355148838563,5.503829854490319
1279,-3.490257616859614,4.84526178688728
1280,-2.2514859133637404,2.7844618866147983
1281,-3.2364737971893947,4.481250726187175
1282,-3.3338736277444325,1.5860117031799281
1283,-1.361231158501424,1.3193916151661589
1284,2.024021972334834,-2.458750847591079
1285,2.3286359407215427,-4.890138023151022
1286,5.4092029045744185,-3.8347831347835455
1287,4.530282491363528,-4.644135011451811
1288,0.9317941978953598,-2.884267773497842
1289,1.0763014287740704,-1.2134594415224935
1290,-2.739771439972095,0.6169547526339119
1291,-2.107597102097173,1.8860351758050857
1292,-4.173933591258804,3.175767822147036
1293,-4.38409890420757,4.545941749393012
1294,-5.139727392859764,3.658141726328619
1295,-4.639972714530568,3.551787671227051
1296,-1.6890246315639443,1.3491269369784111
1297,0.9790785826532638,-0.5693999815232054
1298,0.6690315740505289,-0.3745851351588788
1299,-0.9741831188794481,0.3281134349698358
1300,-1.9327504365187491,-0.5237520856623739
1301,-1.359073514838345,3.297555243443273
1302,-4.435594433119923,5.719216209584835
1303,-4.772813565242198,6.360351992773949
1304,-4.201896703038592,6.578647754996675
1305,-3.4961428203292813,3.2070751184586097
1306,-3.9301782705936983,4.148588501001493
1307,-4.5997561157312825,4.072093071531197
1308,-2.3424780358098305,2.2350281787968376
1309,-1.9583384368920789,1.0724192052922195
1310,-0.09246544274970828,-0.6228555943755921
1311,1.1433242871636007,0.9019618256388283
1312,-0.9731440822380554,-0.869645114093826
1313,4.099364610422461,-3.6167331965332075
1314,6.583632370625115,-5.7645542286215
1315,6.091581238367437,-5.013225879104729
1316,4.158389332174133,-2.7349470249883527
1317,1.0732525262342256,-0.8028647079344577
1318,-1.433610027225681,1.9294373203473945
1319,-3.816673570736486,4.207943847189433
1320,-6.514962515128076,5.375823878129607
1321,-6.953108634657563,8.119029283013521
1322,-7.856992532938364,7.375289306671116
1323,-5.126879585932368,6.803214961829675
1324,-3.5321323058332803,1.8286407600921153
1325,0.4875665998759615,-0.8764190190400598
1326,4.439016177859182,-3.999507417458784
1327,5.652853596449826,-6.19251585002339
1328,6.771001683850909,-4.274266739880701
1329,6.077925124818443,-3.740007709863911
1330,1.8487465664565168,-1.526992390424511
1331,-1.8490139970050612,0.9819482675233088
1332,-4.58816271929576,4.451775563795849
1333,-5.131938881564956,4.878292252918593
1334,-4.09295373018401,5.217334706367465
1335,-2.21529473765843,1.478130961668216
1336,2.615402945688376,-2.783479612445313
1337,7.26472085258106,-6.468072526325659
1338,10.012201476034154,-11.680984095200063
1339,11.929521834107284,-10.497762248868543
1340,11.895811013356738,-10.813613151464189
1341,3.848128687760833,-4.991746852126943
1342,1.0570421283747504,0.20585235226358273
1343,-1.7301610882829763,3.4960572913680767
1344,-6.200134055028407,5.7567096787518075
1345,-6.442786492505768,7.059245962084534
1346,-5.361863515670732,4.649739806208688
1347,-3.040614470317667,2.2425277854558545
1348,1.4619436639853451,-2.727510981449286
1349,6.75280495526237,-7.921272454131724
1350,7.501062845337039,-10.85217459561802
1351,8.759146636104926,-8.985973330733277
1352,7.748349280236349,-6.348366398726906
1353,1.9312935234489192,-3.9103360100096554
1354,-0.8229388148786462,1.2823181654663016
1355,-5.8653856419368084,3.039725577074012
1356,-6.439303073155336,6.703398934416585
1357,-5.616121969345107,6.84011496829252
1358,-3.9914529033103476,3.924124544945825
1359,0.3791617835121158,0.784452982366777
1360,4.021880787441987,-4.221996036733245
1361,6.550337654126295,-8.554961596284972
1362,10.224797410730744,-10.28019892331712
1363,10.151106388694727,-10.035726642028168
1364,7.232384460085531,-8.788302922942071
1365,4.5502725270087785,-4.628474880361976
1366,1.374778585350487,-1.0268010148684565
1367,-3.0119911863239968,4.205591640523528
1368,-4.5498710228321215,4.927882930728428
1369,-5.3148086990252565,2.8942581135368948
1370,-2.425174064583761,3.6068709328036386
1371,-0.9606165111723374,2.0094855126815054
1372,-0.2883922547328335,0.006499511280962572
1373,2.5440271991140575,-3.676556820674606
1374,3.7709961973622352,-3.9395842305295155
1375,3.439473269914294,-4.027175883548219
1376,2.33799926728065,-2.2370906627921294
1377,0.07306228761933573,1.437991605830846
1378,-3.2345920238631427,3.4008347627551174
1379,-3.826608745745484,5.653303627317085
1380,-5.915080864800426,3.951606120482453
1381,-3.4029662078155583,2.9355352370587107
1382,-2.1725441348941827,0.044226112517176314
1383,-0.5915368616420547,1.643797359844465
1384,1.1764230168149,-1.9232600969791416
1385,3.446166790523505,-2.436884228898495
1386,4.480371248908448,-4.758805011501399
1387,8.600600289605412,-6.451025153642054
1388,5.21192122641613,-5.966754981364224
1389,4.95211348041953,-4.96552345008559
1390,2.687284019233996,-2.4846611906227607
1391,1.5615312632120426,-1.9080547361227729
1392,-1.8295270605530027,-0.09866739946027975
1393,-2.297914774371161,1.139452365659238
1394,0.8213107078887303,0.9570502308091313
1395,-0.2859608544133382,0.547703907620989
1396,-1.0721963215163655,0.021978256172105692
1397,3.5283143820062968,-2.766717084252514
1398,0.766971396291485,-4.924421729533883
1399,4.770201474043952,-3.1875500094885023
1400,2.3215104228283057,-2.7361813002493385
1401,0.24829915359554314,0.28170884818243236
1402,-0.6591990817808654,0.9195900937884856
1403,-4.287124347946013,2.2990662487049045
1404,-4.5906984706540594,4.369172683082845
1405,-3.963869607502418,4.135563953930185
1406,-4.970133043721596,3.8931757478986175
1407,-4.226528093031054,4.711464215036018
1408,-1.4276473532747573,1.7264089460578904
1409,0.8054301988177714,-1.4261504607820774
1410,0.5915580147848754,-1.599256810147656
1411,4.473035573710947,-5.616997539053313
1412,4.683974961927655,-3.4360747271905208
1413,0.85979358917942,-3.4908628579471794
1414,7.781330645064392,-5.7075091238201345
1415,7.904537470987967,-9.42747589089355
1416,7.97825945436681,-7.429999977867018
1417,6.173354438996363,-5.797110527655645
1418,2.7249811702350586,-3.5266502102108976
1419,-0.9875589308489399,-1.2016332756439407
1420,-2.2640996908715976,1.9621863979375935
1421,-3.237225047541017,3.5864148388254877
1422,-4.97347911749497,6.650424072750829
1423,-5.078513606473076,5.44493777057603
1424,-4.817170568526762,4.94938947000264
1425,-0.4964047224950521,1.8276765800533799
1426,2.0640559470219846,-3.103399112680567
1427,6.391991540053412,-5.299030917358208
1428,7.612330534858411,-9.45805532887322
1429,8.721695098955292,-10.088924569006613
1430,5.837256877931048,-6.191929151974612
1431,3.701300678005061,-2.627063736851605
1432,0.10063874759775326,-0.3155311761016504
1433,-3.4403783325411132,2.550029000425948
1434,-2.369601890589091,2.883203371739709
1435,-1.0034106126175035,1.8774356583894967
1436,0.0782407704952692,-1.424036567547068
1437,4.28813490851096,-5.742027662631468
1438,8.73031426197829,-10.451587219495426
1439,13.14654777903327,-14.219253969255444
1440,13.596314169572995,-14.719602283062287
1441,12.854693187655702,-12.894842453866865
1442,6.1440152830387795,-8.636165658507398
1443,2.4875011247543046,-2.8719769385411675
1444,-2.375820677256089,0.8103441606814611
1445,-4.483188699255787,5.213014823413696
1446,-5.065654942566819,6.1530663305214635
1447,-7.296751591368573,5.418136267871506
1448,-3.6750739392219027,3.94894449011406
1449,2.552005792763878,-0.8059682346161826
1450,4.909604119046221,-4.322589706182769
1451,9.32398793450341,-10.76913581764284
1452,8.966818561490058,-6.748408096400554
1453,6.416176578227297,-7.582965084972889
1454,3.6249422037982866,-4.341426980901239
1455,-0.444049319766491,0.5010532271491233
1456,-3.3492921995177785,4.000215939180358
1457,-5.896319399269405,7.3479759494009755
1458,-6.017180461219036,4.893078342233311
1459,-4.512796730380375,5.353819524480711
1460,-0.401410240036832,0.3461119637241701
1461,5.471544110945349,-4.692000913035402
1462,9.20957382899257,-10.766685119822304
1463,12.629022107067636,-13.173730895083386
1464,13.084376493011158,-12.635366448194278
1465,7.561600267378818,-10.248461645649584
1466,6.09476914684742,-6.822194170440313
1467,2.2430158672977663,-0.4012838957024787
1468,-2.968911837765557,1.922786116117074
1469,-3.5298786995440965,5.281668898962201
1470,-2.9710313924246283,5.607129485985051
1471,-1.3147472951943484,3.8387712854453144
1472,0.11511661756471628,-0.12965265258828038
1473,1.7721951154702078,-2.9098190987071506
1474,4.339835467084819,-2.3246934925215106
1475,5.853418582428982,-5.916886275782914
1476,5.289331883085522,-4.353022477633617
1477,4.020152046799792,-5.217969687065139
1478,-0.07592872017149352,-0.6878078917933759
1479,-4.059099819461614,4.38613922942903
1480,-6.11252211692597,5.730418287293748
1481,-6.520209956694883,4.011759388763049
1482,-4.8021003528351205,5.010567720754585
1483,-3.406446438079437,0.6568415707839291
1484,0.4960728763446132,1.315587563421824
1485,5.1837240967542435,-4.705104047046902
1486,4.767753249240116,-7.314668083245579
1487,8.398444184731211,-8.483791140707098
1488,10.355943105239085,-11.0015355202611
1489,7.878503490904517,-9.658074823778971
1490,6.047075137973636,-6.369946151828965
1491,4.840272444738283,-4.4906840866216555
1492,2.555537989180266,-2.2048228101763403
1493,-0.30618415561270745,1.6794961508433268
1494,0.395230792351301,1.7799439794213894
1495,1.0372177874079693,-3.355856633189897
1496,1.5231600724002268,-2.0814028427667126
1497,4.787676089160285,-2.6837269748813575
1498,6.7734314863861895,-6.626314445866213
1499,5.75824721936374,-7.569315830066234
1500,4.978276396773947,-8.434184845380175
1501,3.8406523673195916,-4.712995403054773
1502,1.820235909822265,-0.6490341270793094
1503,-2.562643826664937,1.2897915404187699
1504,-2.276235619662194,3.692644146359257
1505,-3.3992480360016075,3.484075422560348
1506,-2.277870005994759,4.083123871566576
1507,-1.2234835252085245,2.074046133315789
1508,-1.933628028717393,1.4212230972844457
1509,1.5480559586665519,-1.0750302139747796
1510,3.4428314812017335,-2.989394811348827
1511,4.652147136414078,-4.827223268694049
1512,3.151484723486329,-6.374596608876644
1513,4.17286778171801,-5.368159794951383
1514,4.341655302993791,-3.5536547540476486
1515,6.558228199048703,-6.956955411147579
1516,8.164360184049574,-10.493883737745488
1517,9.414799230728459,-10.179932475602767
1518,7.423367993967239,-6.847444707246354
1519,5.346386633961811,-4.36964135594125
1520,2.530278960583992,-2.200154440096267
1521,1.9150171900325261,0.9022653929960033
1522,-2.0608248484287626,3.0507009770003806
1523,-2.217651572995219,4.862329419655195
1524,-5.835682506480243,6.047617509869703
1525,-3.7898917077043976,3.7824791416551578
1526,-1.4832857641404262,2.786268581159927
1527,1.7726992472739649,-3.41242465865599
1528,6.1504415126376655,-5.288292258545695
1529,8.670019687401222,-10.648318607249077
1530,10.499303784043532,-10.95902587245691
1531,8.68167377391972,-6.954174475218624
1532,5.717002610285129,-4.082437038956115
1533,2.330388023443202,-1.826385321768719
1534,-0.3040476048772558,-0.11278094353766963
1535,-0.5406815556582651,-0.0555234167674554
1536,1.266367196074136,-0.08584289377315463
1537,3.7113402010002656,-4.103217883959342
1538,6.611902748560721,-5.588327944333478
1539,9.073367833837706,-10.821938659818082
1540,13.682936568040779,-15.132956593155116
1541,14.236923405899034,-12.390420048269204
1542,11.298832320566367,-13.749667800999154
1543,7.58747338937233,-9.002768996206932
1544,4.787995380653793,-3.399606031433406
1545,-2.364004147352753,0.9071284994438504
1546,-5.418024754051079,3.5419159878114135
1547,-7.778271171649099,6.881005321599185
1548,-4.788304912160452,6.569926898669065
1549,-3.590868304989171,4.85674847176225
1550,1.1671155139317437,-1.1753542763700713
1551,4.130960850707646,-4.065542453779331
1552,7.293296131248024,-10.114989255706183
1553,6.979124517061925,-8.323234316478606
1554,8.072982402694064,-7.0675722655141096
1555,3.0637660523902275,-3.447085043782643
1556,0.5418395214170919,1.009751899644516
1557,-2.417231894066038,2.553084602864065
1558,-5.675184502429486,7.125586149062945
1559,-5.783411161903351,6.855554318993973
1560,-3.862479918965246,3.7418080431785796
1561,0.02611531267738118,1.3856982587925721
1562,5.282873609787563,-6.528911885211945
1563,7.563918136958565,-8.534327798765744
1564,14.012951532788211,-12.32305087760683
1565,12.792821242749271,-12.817697315953696
1566,11.605070166928414,-10.89170254049937
1567,4.791421665585763,-7.882095557062979
1568,2.5394988204406443,-4.244213491883959
1569,-3.0618135993227122,1.0030779983339189
1570,-5.519580896204736,2.32656544746451
1571,-4.623061086942921,3.89501645466028
1572,-1.5012027767399607,2.071155147125692
1573,-0.0021855211505118766,0.5449086228538188
1574,2.8757619314108105,-1.0933401953332025
1575,4.733095340046215,-5.4331241171379885
1576,4.330647843542969,-8.476450216937103
1577,6.641146496751842,-5.864366635589111
1578,4.833984363268743,-6.484477123691538
1579,0.2461402553183106,-3.150466951211917
1580,-3.413294311711394,1.8194483915400754
1581,-4.053394360022344,5.82749650607058
1582,-5.713295385825372,4.409557176750095
1583,-3.3096583051287,5.000115250597397
1584,-2.7587526147025465,0.39794513920190866
1585,3.721619109151604,-1.6135728029173024
1586,4.772737868554043,-6.688071363049519
1587,10.476672068778264,-9.549759971843983
1588,12.840273114478517,-11.653015992889838
1589,13.887007160791482,-11.633285019492169
1590,12.688076647657686,-10.735912254111655
1591,9.65381375503085,-8.122061439762467
1592,4.812971675584612,-4.359070765775193
1593,3.517073282203083,-3.1799728754220427
1594,-0.6368064541776708,-0.040204178004434404
1595,0.6894272683318459,-0.4091671330290456
1596,3.145072646367798,-2.1779462566169894
1597,4.710226128398416,-5.655235318199067
1598,6.354355046982912,-6.9070571536704275
1599,8.902525203131745,-9.23691690163129
1600,9.657627358254416,-9.942427534895184
1601,8.368853599803211,-7.623655085902682
1602,3.126785149390588,-5.155307348087006
1603,1.8215190023073065,-2.735441956640005
1604,-0.35921751755651254,0.6916374221010596
1605,-0.9597894731261861,1.478985016368605
1606,-3.601013995051208,3.2564209861277997
1607,-2.9968644208988984,0.8314760493444912
1608,-1.1436767758022115,1.011115468816371
1609,-0.25975872670423605,-2.0031920972815027
1610,3.826934821947967,-3.8841429634644262
1611,6.910138253848593,-5.797326632742976
1612,5.876159508083491,-6.616292030867573
1613,6.835019605639644,-7.44746787873873
1614,7.246524668704085,-6.161572702769117
1615,4.341701274002041,-6.894039942912496
1616,5.7224944532209046,-7.987283182499963
1617,7.7728710192595365,-7.424963908366103
1618,8.151878289368774,-8.488916959946613
1619,6.288588321232608,-6.661167038570144
1620,5.876691914494197,-5.764705466823384
1621,2.622007467812692,-2.8163589806254214
1622,0.9968246511527291,-0.8280090176431097
1623,0.142465982936376,1.0214652554310604
1624,-2.8494129464553173,3.944561749593313
1625,-4.7807948697675,2.8451978383950456
1626,-3.410189339867424,3.8195364461468815
1627,-1.7577276077003359,0.8662760906965665
1628,0.627869425616641,-1.9516951708995058
1629,5.495039905845732,-6.494808826766117
1630,8.808992941277511,-8.170674292663527
1631,9.38478055567616,-10.392374946655147
1632,9.292799599531463,-8.31262418354364
1633,5.35264964840268,-6.23317466190775
1634,2.868870115017496,-4.745553167414895
1635,2.484132917763116,-3.3924953769989723
1636,3.611220651635567,-1.8266136891089446
1637,3.100725912398101,-2.4889606818262164
1638,3.993328263141077,-4.4621218197094805
1639,5.435991488931488,-5.592793729005573
1640,10.313548048520541,-11.538113511715007
1641,11.889175819217217,-13.012028106392545
1642,13.026951974576427,-12.571687961295815
1643,13.512756843880032,-12.18369991011449
1644,8.819177018602321,-8.01771876808576
1645,5.62363314356742,-6.41402627255555
1646,-0.9196387788655108,-2.344029850314299
1647,-1.9403417066775666,3.7810184872307633
1648,-5.815421422578952,4.742970157410573
1649,-7.475075555809653,4.11938085624613
1650,-3.7917015175532924,4.0673560757838825
1651,-3.391849976289238,2.414436098108587
1652,1.8705185157004527,0.058316495517948486
1653,3.2743161104535896,-4.619655980618595
1654,6.571871855334566,-5.909207357124468
1655,4.429043500211945,-3.7478850090791855
1656,3.0535284975036032,-2.137477829826581
1657,-0.009398519670321792,-0.6303081476222288
1658,-1.1722770542644452,1.1245917480474805
1659,-3.650036141099926,3.448941317045476
1660,-5.341580754051728,4.678084085562578
1661,-1.5814490988162133,3.112139211695344
1662,0.7596868585652412,0.45333421139986785
1663,4.25793165664643,-4.2360493803285335
1664,5.179745119463482,-8.875311132008742
1665,8.510793574780497,-10.584876239524721
1666,11.052717181745086,-11.369418772512104
1667,8.977140025435967,-8.675119255463189
1668,5.771939977105229,-6.158470608558582
1669,2.4482813944506723,-2.902079717869333
1670,-2.4760990227536914,0.02917806131624401
1671,-3.2290585826432157,2.0172907467783343
1672,-2.243247496077802,2.697503571719486
1673,-3.3629799919518932,1.070475631997176
1674,-1.8388619960205694,-0.01871135587641315
1675,1.3496542944919974,-1.3463880024040906
1676,4.238506821958839,-5.069773981879129
1677,5.185816344517597,-5.6212692077036595
1678,6.288633135300119,-5.259846337544749
1679,4.00549291354975,-5.602743694973617
1680,0.7636709116073234,-0.6972298189289421
1681,-1.5157888801158212,2.601392826158456
1682,-3.1247194116488384,4.709884132129989
1683,-6.658736410644466,5.504163781250038
1684,-3.949758776437817,4.221521355835332
1685,-2.666235517585097,1.246664305624918
1686,0.5381644445504918,-0.09965713065973675
1687,5.042280703553473,-5.205399070566337
1688,10.686363864174185,-8.969713388988415
1689,12.903472782031614,-12.286796093720518
1690,12.910290189799758,-13.928614888411154
1691,13.727259960988581,-11.0520069213949
1692,7.925929163569618,-9.119502852849655
1693,5.473348284868892,-5.926833582704513
1694,3.303037268337049,-4.417922658421567
1695,0.466143111105089,0.32509503155987385
1696,0.24378305506151346,-2.2482523762929256
1697,4.166059073888946,-4.12731070326021
1698,6.6666271594299635,-5.264384460326455
1699,5.470894184153484,-6.2383631226769465
1700,9.46177078406488,-9.25729741501271
1701,9.37407729406118,-7.674599507319247
1702,7.4052277333014604,-8.677524875954026
1703,4.37691960325561,-5.327614986279775
1704,1.2139626274338962,-1.5994170348127508
1705,-1.6291797130085914,0.4087825417426657
1706,-1.0396192274475662,3.10779256223643
1707,-1.5350648521279198,0.8362924726328756
1708,-1.4333064658737833,1.378168850265687
1709,2.0646036455386083,-1.6184313911485333
1710,3.6691431909791703,-4.748772620248414
1711,6.2094160624963015,-6.485931362996107
1712,6.473245731650204,-8.043666677998063
1713,6.731868100668266,-9.407486244329178
1714,9.52053523576825,-10.131683165960911
1715,6.357268132566595,-6.93373813410345
1716,5.068492025433058,-6.050288089691565
1717,4.4543330336608316,-4.417140791755728
1718,4.802135655519187,-5.167089410713547
1719,7.875421597630172,-5.816762946454283
1720,4.578146014918556,-5.472581401944933
1721,2.4841592889137996,-2.196127417340143
1722,2.992590508072969,-3.3728937929517007
1723,1.6365143342507318,-2.4979848676228413
1724,-0.01910348364588424,-0.4069708832917953
1725,-1.52486530714005,0.8935281899649223
1726,-2.9644986034977667,3.840412254979654
1727,-5.132678326739152,4.912196304785901
1728,-0.4314695717201614,3.486148086296066
1729,0.7603320164671777,-0.8486336769562423
1730,4.6499943735119205,-2.419567153192906
1731,8.930177364879615,-6.272898430976525
1732,6.573591595889686,-6.188283177810757
1733,6.7740502118619625,-4.109464017597565
1734,5.1086137754320005,-4.343891577516103
1735,3.131278283396115,-5.1115744405659385
1736,4.921016698755325,-1.9840155364576155
1737,4.339536293770199,-2.8514721746273524
1738,2.942494207597721,-2.7457058379587167
1739,5.104763591282106,-3.829044696842487
1740,4.405448710191301,-7.072968121317436
1741,7.644613917519655,-6.547845343646949
1742,7.7755736190854465,-8.433433173117749
1743,7.739208138737004,-8.281232329704547
1744,8.625666765929244,-10.556079474736164
1745,8.921310460355324,-9.163574220455297
1746,4.725144853227527,-5.299034044241868
1747,0.9691767644972139,0.17603860238741198
1748,0.46018072604471316,1.6421494940940824
1749,-5.723947946096426,4.908568524160805
1750,-6.375893425710385,6.581548901424967
1751,-5.735351690359824,6.711500065328664
1752,-6.190651370856061,6.285588567866119
1753,-3.396318086118708,4.326781204490275
1754,0.8302223499510103,0.41130554933608954
1755,-0.7194438947336961,-1.0426243687868004
1756,2.2464414192559796,-0.8695258148647902
1757,0.28251590052415737,-1.0449890902842138
1758,-1.159207194355652,1.7002076438022966
1759,-2.613632020761906,1.726521748875764
1760,-4.816319473840973,4.309431592731856
1761,-7.1620346772582915,3.4501217387209624
1762,-3.2682508744505676,4.680468513623502
1763,-2.598344317146613,2.1537768118319214
1764,2.1283273999725525,-1.9880372628823975
1765,4.217910653599866,-2.94120792203533
1766,6.625077845790235,-5.917754258802239
1767,6.990757121727769,-4.454251678005547
1768,3.9419806092578784,-5.607331293274712
1769,3.1651277421425825,-3.3200049411744965
1770,1.999996894604446,-2.2860574694772953
1771,-1.5131149237346648,0.35572955676265194
1772,-3.5360535695905773,3.607749640370405
1773,-3.3245414832527684,2.9088457103718564
1774,-1.755659577711912,4.37880884978535
1775,-2.1433275800326133,3.089562128123632
1776,0.4067064899791361,1.5436713542945875
1777,4.129838875435708,-2.1397838739824664
1778,3.6565788765457885,-5.904242395842616
1779,4.86602585077867,-6.50428506185298
1780,3.6606441725563155,-4.122781880497444
1781,3.7431938287538706,-2.7357378071794347
1782,-1.10221834668617,-0.15497844969766839
1783,-4.8747101652849185,3.4226090757441168
1784,-4.919202411547559,5.451258599341118
1785,-5.263250222754593,5.01104880780491
1786,-3.7657953100041923,2.129371339138111
1787,2.4958163160051527,0.21687014806870727
1788,3.6003639203385025,-3.9280223964307592
1789,7.657375126483574,-5.467903823886726
1790,8.77768593585455,-9.85809542907375
1791,12.94821709122806,-11.977510972716715
1792,12.737416219005693,-13.1596577235133
1793,10.731347575201335,-7.948272856780299
1794,5.817816839871974,-7.377288981084985
1795,3.169530597410089,-3.501043387019488
1796,1.4719147182670798,-2.3937361736367335
1797,2.0374145358055027,-3.37446539382116
1798,2.100842530143412,-3.2905841569149183
1799,3.851186792233287,-3.24206502051905
1800,4.588749490028216,-4.358342922819019
1801,7.912745538701436,-5.489172216543043
1802,7.558229078173572,-8.44266898845304
1803,6.370807487621641,-7.878243587464776
1804,4.355849274395731,-5.434650685532277
1805,1.1458003723619337,-1.166184762896251
1806,-3.1675361049826956,0.34025084465149474
1807,0.8799364765664089,2.2704345307003813
1808,-1.5602419526175917,1.9807515251387708
1809,-0.16245347649095523,1.3090649884540093
1810,4.285905875990631,-1.306938045238021
1811,5.214033992348926,-2.526185141336325
1812,7.562255902661721,-7.375403795220524
1813,8.090063857888863,-6.448365994430767
1814,7.455371671620179,-8.899820547850181
1815,8.011188365944877,-7.189340168862061
1816,8.842579376206373,-6.106040722076476
1817,7.165975803765675,-4.525925594652107
1818,2.978219248909512,-5.0590270560569754
1819,3.8415113066222055,-3.8640997688832206
1820,2.2518432850157115,-2.457593208573061
1821,2.38443017492982,-1.6477893843268385
1822,1.8254542913380156,-1.326621278167348
1823,1.3466343605167164,-0.9641620331286682
1824,0.3431991359046383,-1.8597191116551546
1825,1.2236316804072764,-1.1117668517563954
1826,-2.9512666400834995,1.889777145383108
1827,-3.947882698686963,2.347244974124946
1828,-4.571871600510377,4.410620402206787
1829,-4.668264842802975,3.372806417129425
1830,-1.2838199529056527,1.2359638821103378
1831,1.118810629861173,-1.943583638734991
1832,3.7249391727229724,-4.526497699603505
1833,4.9902367340630125,-3.9551589596794225
1834,3.9183196599860537,-4.432275604823605
1835,4.165361631513179,-3.9688088276031976
1836,5.011023096698416,-4.969119845747748
1837,4.871643514425875,-4.026712542930272
1838,3.341013993958744,-3.247649704274006
1839,3.2211225367671363,-3.6261135979828345
1840,2.9518910785173156,-1.8920211573234895
1841,2.337223371310479,-1.6879347021080637
1842,4.391550209719765,-3.5731050095433594
1843,2.8724884248964813,-3.9326371545874084
1844,5.403052123954948,-5.542532572384548
1845,6.37366552257997,-6.478069394609465
1846,5.3466978414937945,-6.438203619657719
1847,3.562514502556992,-3.7327930454422362
1848,0.29451373299804606,-1.0554803469675813
1849,-3.6481805150034488,3.410321346246194
1850,-3.855025132942539,4.0577335008165045
1851,-7.421579814418739,6.972044015342241
1852,-8.87330414379738,8.860698630447075
1853,-7.508777316681311,6.458051253837084
1854,-7.091618448233929,6.851910471697705
1855,-3.8819932638242345,2.8741206276283684
1856,-5.26519533398261,3.603999641075574
1857,-3.1363478226669788,2.3024425808417703
1858,-2.91576955648667,2.821808614911511
1859,-2.6004029446915498,2.406279619958074
1860,-3.970843852127827,2.3637732654508596
1861,-3.697648694862564,4.477591905264323
1862,-5.501628013182094,4.479307128855462
1863,-6.319061149175672,5.534300343763558
1864,-4.244736830617453,3.164549969220734
1865,0.07047075426393681,1.2061804026662408
1866,1.8305203710043243,-1.230255752986447
1867,1.4252636654313462,-1.5607800863496903
1868,3.827771701826195,-2.4061890164204836
1869,3.0165488836951715,-3.3622037681312333
1870,0.7253702345709159,-1.6863264327839207
1871,-0.7134535184187251,-1.1582448006875352
1872,-1.8046118764628025,1.0851318082501584
1873,-2.1437258931836647,4.090938582614252
1874,-5.709099920538177,3.444104583268561
1875,-5.308007579813365,5.079045184715625
1876,-2.3084882769442663,2.8646526253187403
1877,-1.9979617662074545,-0.33646741527527335
1878,0.7182394557911868,-1.580684570092319
1879,1.8559309526282615,-3.272509162067286
1880,2.852117871031868,-1.9394797069454952
1881,3.355464395575564,-1.6045990552332035
1882,1.3479940125979617,-3.002283658849927
1883,-3.9487415503963663,1.928381975488597
1884,-3.376785400460303,4.759811681795176
1885,-2.051555750832438,6.281342491422429
1886,-3.933794697843101,4.1030039295550464
1887,-2.202744269372478,2.4618381524991504
1888,0.8507900088055065,-0.9370732765599701
1889,0.3727994185363037,-1.2375411577195101
1890,6.383599461078513,-3.7844053574440863
1891,8.179928950848536,-9.946158704273873
1892,7.74479225620397,-7.243377001347742
1893,9.401365723653335,-9.019752944827385
1894,9.077893596939301,-8.63440498629378
1895,6.432588895108283,-4.623708695203048
1896,1.64045529841087,-4.220388524492348
1897,2.8797066302966567,-1.455470714899661
1898,1.730687081519402,-2.3930222290347563
1899,1.3334878281092668,-0.9733447487581894
1900,1.596754972493822,-1.678081730873213
1901,3.0185506780411693,-0.8123208671265084
1902,3.212288477551264,-4.394100690115784
1903,5.024132553071607,-2.5441250454524607
1904,4.725596140897016,-4.6177435867683325
1905,3.082249934373595,-4.254856340116144
1906,1.1900628704050633,-0.49832878885625637
1907,-0.08806434323767176,0.8755475010277147
1908,-2.5880927235838724,2.181674764673015
1909,-1.4825669153477197,1.6873777119753819
1910,-2.7312704498125475,1.2924239455164417
1911,2.282295817964919,-2.866967247742202
1912,2.2973397079769615,-3.5152352180279003
1913,5.597866747973573,-5.600741523152996
1914,6.806325397159251,-6.593563397937178
1915,8.961311235428946,-6.380865450460525
1916,7.63508523207433,-5.8026204881244166
1917,5.964414399555149,-5.20061085501129
1918,5.02083212905782,-5.505984125393101
1919,1.1358972368830786,0.14007199979296495
1920,1.2033843393694907,-0.7985519381021737
1921,0.31851418417903476,-0.46760358879731956
1922,0.027453497202695604,-2.0632818064016822
1923,-0.11574526166948373,2.2707183514220004
1924,1.0413561467732468,1.4238897806734447
1925,-0.3693765127010891,0.9434723153499898
1926,-3.288088480205556,2.98643204295881
1927,-2.769634225775453,4.543951198989502
1928,-3.3360053081579673,3.003613038105908
1929,-5.133347402291671,5.563778755832134
1930,-3.8262213831400596,4.2886714162094455
1931,-4.24144579172987,2.7823443958989156
1932,0.33536563140730513,1.5143472415470547
1933,-0.7576827222121871,1.7969228250317135
1934,-0.6242560309937132,-1.1139411935935053
1935,0.910029848351142,-2.1839798525537333
1936,0.8940241699504626,-3.099975746813982
1937,3.5502197919877676,-4.158348475517856
1938,4.17968181234387,-4.394129271082865
1939,0.9310860109893748,-2.343392979345962
1940,-1.0119719345234286,-0.8818306230675867
1941,-0.9188246690457101,-0.48937184374776665
1942,-0.940096760275159,1.4551944294869417
1943,-2.405907481548358,0.49362093087474856
1944,-0.010932660815526823,-0.6877693989574035
1945,0.5948792724990718,-1.5448659743054471
1946,1.7251019350036227,-1.3997639455067306
1947,0.8057426099539367,-0.05502018102551712
1948,2.5677405673421583,-0.9241042206046247
1949,-0.08318383023246803,-0.5681288300119888
1950,-3.088112128905176,3.6143417026982476
1951,-6.3563436895187415,6.607891325826959
1952,-7.983131997660192,8.987715785398882
1953,-12.202834149723527,9.90011776498749
1954,-10.337697832803876,8.852733368717303
1955,-9.29644284132376,7.854721814229831
1956,-8.391511600824824,6.811334963342332
1957,-8.578407840049218,7.893792723006238
1958,-6.184968431700247,5.566861915004825
1959,-5.744721481454587,4.714125005410202
1960,-4.602684990820561,4.607985614609981
1961,-3.598694483249339,5.021516658116595
1962,-5.5466784987415885,4.0595208626028505
1963,-7.15292187278307,4.961420470904665
1964,-6.89360453932021,5.404525571268055
1965,-3.6090549490389634,3.4942294579343707
1966,-3.5923436344770665,2.542078765192462
1967,-2.211565346936829,2.1733931165610834
1968,-1.7192154180594825,0.5539040263291741
1969,-1.784977783035763,0.8676183991427833
1970,-3.1574153706122736,3.0258660860774977
1971,-1.9241729489544275,2.63163569442804
1972,-3.3657394275383843,0.2108517524859675
1973,-5.603149211562949,4.822680682464206
1974,-8.093596077161033,7.0935267557574235
1975,-7.043242920657838,9.230105724785846
1976,-6.490375135736547,7.049362933570284
1977,-6.70639579755857,6.315531825137623
1978,-3.750785464699491,2.7797337147230388
1979,-1.805833106239787,2.5288956852784015
1980,-0.9690050113177396,2.152167676022152
1981,-1.187489016600603,-0.8949989647973333
1982,2.595321389597966,1.3910275033096555
1983,-1.4102440578917288,1.1514875973038694
1984,-3.9184453397293546,4.138554778142276
1985,-4.950255539261351,3.952623702894291
1986,-4.923388298530924,5.412870672910525
1987,-5.083793376711215,4.5688998101049165
1988,-2.316463732439059,1.9261321427120928
1989,-3.106320871740044,0.421626675805462
1990,0.22155411266514322,1.4680341217606836
1991,1.5065401717627722,-3.1374167894866303
1992,4.364154453256634,-2.8947022223278225
1993,6.943659043530381,-6.095479393269274
1994,8.151081589953607,-6.549847950737384
1995,4.706855627490945,-5.009352811536748
1996,1.6246384622171617,-0.3250163124071982
1997,0.8872859005039306,-1.5880185723808444
1998,-0.574602827712552,-0.6970659217875183
1999,-1.2140141981516974,2.560918369103608
2000,0.08179184074768825,-0.0713955716643685
2001,-0.32444596936536985,0.7537909222707448
2002,1.1437832410642217,0.7594560362493821
2003,1.0536710962318145,-0.5360968552573523
2004,1.8167883859920773,-2.392952827704714
2005,4.130269107195461,-3.193288790862837
2006,1.6008846282109093,-1.782768621414232
2007,0.26868642252784974,2.1707657527301008
2008,-2.012079018677241,-0.15630786461409338
2009,-3.4872686612833963,3.4040842340973327
2010,-1.8289704365722619,3.2344759245501056
2011,-3.100076018873348,1.8896962002720947
2012,0.7603878555710483,-0.6538715915103139
2013,0.09167962095530852,-2.9549101767181
2014,1.7736373553809879,-3.2836028288518566
2015,5.186792294810224,-4.112969965602657
2016,7.048868149999617,-6.963861272736704
2017,6.906201209518215,-7.405726829544887
2018,5.495949711867468,-6.295878184529801
2019,3.7399823087499837,-5.407737694396889
2020,-3.5289941810583354,0.16401219433273823
2021,-2.069657307107602,0.3554732451885434
2022,-2.63618541830174,0.38736982122376684
2023,-2.1948114073822773,2.3987617061720212
2024,-2.86702676322215,3.175462733282512
2025,-1.4381302428157172,2.6495739178853164
2026,-3.7398561933935657,2.73563746413947
2027,-3.8321438043462073,2.988620316957494
2028,-4.176257203575806,4.452120384250397
2029,-5.531427523330071,4.312954054950157
2030,-4.712032379632497,6.975421477844801
2031,-7.589246682337807,4.575427027223325
2032,-4.842240758558915,4.9454772926014785
2033,-5.294210905366809,3.6800493879739253
2034,-3.6395972859841823,3.2369804661477604
2035,-4.111903057775589,1.2035619276621712
2036,-1.1434046897834504,1.061520977414528
2037,0.6804876752145899,-1.3430851531421557
2038,1.3949358396384175,-2.990640114969802
2039,4.026952773754921,-0.2519497408854817
2040,1.7099969152256558,-3.0003931724981276
2041,-2.3455997003497906,2.364733660912057
2042,-1.2586197356508466,3.701968817073631
2043,-4.252355850047148,2.8761068924639352
2044,-4.889737595482694,3.1411972116958813
2045,-1.868850488134462,2.6034607130590715
2046,-1.755613762870219,1.2982773559562213
2047,-2.051387865624845,1.9572115187516532
2048,-1.8007611959119503,2.3901349986278744
2049,-2.0594857603027408,1.300537062794196
2050,-0.4457515491598641,1.548210598560988
2051,-3.332240932313828,5.33651716481905
2052,-7.875452161009845,5.280254022495652
2053,-10.249986059894917,11.714490706050933
2054,-8.959846168006614,12.179966983791982
2055,-10.368595828276767,10.361639299665345
2056,-11.128876810065561,10.514888000391817
2057,-9.622255834540717,10.01404251590455
2058,-11.20923054103734,9.411775076450855
2059,-9.246304827145458,7.768631892962292
2060,-7.2132662092530335,8.142591058036658
2061,-6.26642086081622,5.579046976025975
2062,-6.220178873617662,6.075681699146278
2063,-6.941658484708171,7.0118093350006125
2064,-8.407226531101179,10.964101166632302
2065,-8.994261910050044,7.224482591725616
2066,-5.537052863980319,5.595217507491949
2067,-4.782534820479722,4.7280009611385445
2068,-3.1814456512793994,4.7660342350163365
2069,-4.878494646516664,3.677075068509284
2070,-5.831106335529565,4.655863724796463
2071,-5.857538370432788,5.698838450410488
2072,-4.558874672984102,5.243123791314799
2073,-4.845224286516997,3.879567396843339
2074,-9.685616711855234,8.970166107488092
2075,-9.775856629868262,10.068769470903025
2076,-11.946617216664391,12.875069289840033
2077,-9.999861239690073,8.08736392962215
2078,-8.34069085185721,7.374636901107687
2079,-7.103773485888748,5.223723773842153
2080,-6.887432384949515,6.897263446224648
2081,-3.3471122613874713,5.119019278760376
2082,-3.5276352863321354,4.008282577325693
2083,-5.244720666901423,2.2953001675450686
2084,-2.903289131720877,2.689796878669363
2085,-3.6971400386470443,4.151235876108212
2086,-5.835158131974875,7.631129477978979
2087,-7.821233175663203,6.965188926236475
2088,-6.091090243364049,5.731048683939046
2089,-5.1401702965263905,6.014566454601431
2090,0.10499078730253306,1.7896038245325996
2091,-2.1568500565432314,1.157965319956403
2092,-1.3524914130333106,2.348550778922397
2093,-0.13228968810486363,-0.9674576788205413
2094,2.2260893639732235,-1.7937008897989875
2095,4.07315035429901,-2.5892332095712813
2096,0.8562087956803247,-2.2478299921322087
2097,-0.7797221547473339,1.9329645065106578
2098,-0.5795534264631477,2.1645342121604645
2099,-1.5912711696781248,1.9445907143317338
2100,0.782107156908038,2.704184336738623
2101,-2.0770825552032024,2.3281763347957485
2102,-2.3726134215063475,3.276577077742287
2103,-4.540945065666735,2.5148184032962577
2104,-2.3254639240146333,1.6686952439279792
2105,-1.1379060204029163,0.5045670469968249
2106,0.5968647514205394,0.677011286768957
2107,0.5630726492759847,1.7930645088452972
2108,-1.2585613624187004,1.5877522840110794
2109,-2.598344769622042,2.931656583597525
2110,-3.0490611619114096,4.106090887982571
2111,-2.753253988918689,2.9939882511595304
2112,-1.1548272298069353,1.9355312065737993
2113,0.8387868425462832,1.9287806802769334
2114,0.011987964555812608,-1.0564150547380153
2115,1.5182468960995752,-0.6913541473582395
2116,3.725620259818171,-4.530651261541947
2117,5.294645394779624,-5.4563200856017415
2118,5.541339371926649,-6.148551457749498
2119,6.079229524552056,-4.940745748030409
2120,8.218050410251152,-6.374156658849376
2121,-1.903888606850005,1.7271250449414133
2122,-1.8810854911540351,2.3037725795077653
2123,-1.3860313051934778,1.1504675140461729
2124,-0.7572050500708668,-1.1560290514531155
2125,-2.1825918570201694,0.9517212399061633
2126,-3.0450030139916238,3.6784451303061894
2127,-3.554351870678542,3.9057353605614065
2128,-4.565105255623982,6.512238113115656
2129,-5.284682736764294,4.97982538790208
2130,-4.964498217121793,5.50226331870514
2131,-5.621724040043375,6.4067045203423
2132,-4.807357937107698,4.041339759081299
2133,-3.9575187884044194,2.8315136545585964
2134,-5.254033505676262,2.7365581533226173
2135,-4.89309465329609,6.079862817498751
2136,-3.7956724512293913,5.0412992437824125
2137,-1.677034354385373,-0.14290526192830472
2138,-1.738098691390665,2.683326978231801
2139,-0.3110570039376691,0.2699696623117064
2140,0.35538784250379163,0.8658613918233118
2141,0.730133865114675,1.1359426313566239
2142,-2.6101450975631053,4.171794052848534
2143,-4.909649237133248,3.8547315225275423
2144,-5.49755459157329,6.381431089543075
2145,-8.304190425680266,6.349950145153431
2146,-2.8577005771641497,4.151676382691218
2147,-2.3810014288156043,2.719832397737425
2148,-4.250554382279599,3.014519081072191
2149,-2.6539707818412497,2.5811349028571806
2150,-2.859227816082892,3.1998256291437825
2151,-3.1528906567549178,2.713252992060882
2152,-6.2562321054475465,6.100070672419239
2153,-6.786007614922882,7.380988667213016
2154,-10.568304229757947,10.812321369229581
2155,-10.22400725528465,11.494234943353085
2156,-10.461631259085541,13.5673248433723
2157,-11.753142290608798,12.57237846207871
2158,-11.62588322408954,12.4380907985334
2159,-11.318164545206717,12.147746269166172
2160,-10.000020738566365,8.82929064322371
2161,-8.096718054014465,6.52403613829263
2162,-7.2011482262125535,7.8184369168107
2163,-8.792503643033198,8.080899652305673
2164,-9.94017331828712,8.168947055478315
2165,-8.339881537834271,9.89664326204516
2166,-9.121484406262221,7.964056488055541
2167,-6.3378559201226565,7.720603802929327
2168,-6.138217763647047,6.889522498765995
2169,-5.814843888578736,4.839116648636622
2170,-5.4871834694273245,7.459195785188818
2171,-6.74422143233503,7.062540191404128
2172,-8.654592681997002,7.457332914453638
2173,-6.941132607775022,7.867274995464165
2174,-9.157699210614293,7.5234268109118
2175,-8.084775628082475,10.738153007366458
2176,-11.702616411419552,12.918237932571326
2177,-13.474677228167412,13.427848689732649
2178,-12.605964544269943,9.743115025303608
2179,-8.280207623552654,9.601309117461797
2180,-10.266065109442637,7.67810169769816
2181,-8.966288490959329,7.147519471234202
2182,-6.3429268731636315,8.34242502308974
2183,-4.804909356737459,5.2987447498773586
2184,-4.675331047227045,5.33791212580747
2185,-4.461227619301428,3.51723927756202
2186,-5.782167639178566,6.1279579117386715
2187,-6.44266188720519,6.391682887878197
2188,-8.785064569532553,8.423983203855464
2189,-6.096950036735902,7.618827173014185
2190,-6.241988834339784,5.406224287829927
2191,-5.391902953416491,4.626162883680506
2192,-3.8274817389883897,3.2396543914565785
2193,-5.053056101103159,2.6695853845486006
2194,-0.4886109014417169,3.241040374719123
2195,-0.5186004733956231,-0.027157834721064616
2196,0.9888321887231641,-0.08044096198315737
2197,0.41776465439338684,1.492646558314339
2198,-1.4273481169881825,3.5204179777248514
2199,-5.838586695534419,2.5261616371454068
2200,-2.7319746720141618,3.4607414770214744
2201,-3.7084607668488863,2.136192715554275
2202,-3.1047982203859514,2.780448177249608
2203,-2.904043538025845,3.1087021329273057
2204,-4.019764394216673,2.630420168846193
2205,-3.0997953496199133,5.471685339714439
2206,-1.07660329339583,3.2544618254464655
2207,-1.387261263649192,2.18525389016493
2208,-2.027952011885966,-0.943867842058802
2209,0.8335432353599705,-0.03803491529639155
2210,-3.76481340501708,4.348878231664631
2211,-4.441661990090216,2.461074819187464
2212,-3.3159269286503696,3.7859407396078373
2213,-2.475971199118111,3.775429463335076
2214,-2.6399801557684803,3.5513972565060072
2215,-3.229849092380491,1.671107172945427
2216,-1.8126966494185064,2.13521337339671
2217,0.7077034129641443,-1.7729873337759057
2218,3.0993415218885505,-4.575652221356789
2219,5.203187642970372,-5.454219786001872
2220,6.003510249477524,-5.936663772106438
2221,6.278609427609356,-3.855724435171656
2222,0.8760163718957991,-0.38684080793531395
2223,-0.18782574144771458,0.9836508444135297
2224,0.784827110970268,-1.539178829263689
2225,1.5788572506945941,0.10233347946401306
2226,-2.0329400586543196,-0.6995588271687321
2227,-1.708321820554812,3.419669804736208
2228,-4.267005102513084,5.45584778488123
2229,-5.7014985481967,6.171007473097959
2230,-4.5178092462044015,6.72145836493486
2231,-6.660905705557882,5.984430496372978
2232,-5.789965565010754,7.420690054748839
2233,-4.885866248260848,4.547567651565167
2234,-4.106602629857995,3.663172503547435
2235,-2.9066667736797176,3.6099072752248644
2236,-2.2734664775535816,4.051877507191244
2237,-2.5065309908360303,2.2741414353972242
2238,-2.611113355720399,3.4536475627991394
2239,-1.2132630660128898,1.266633149498921
2240,-0.8860109447229373,0.6495280589161704
2241,-2.5366006963535734,1.5045633884319212
2242,-3.0510047368384603,3.8468523863417965
2243,-5.273928489706212,3.6157608382821067
2244,-5.772656885956805,5.200064809000852
2245,-5.112576398004078,4.899025474374863
2246,-4.8351942970528246,2.7735192958278096
2247,-2.2350839232089785,5.48855525397958
2248,-2.0376887340075327,1.7115203716183236
2249,-3.4715590248204156,2.268256296551906
2250,-2.456460877856778,2.732962120267357
2251,-1.9201010914023415,4.544242559451813
2252,-4.192951369678497,3.74126510171552
2253,-5.1039483209485415,6.449671033569068
2254,-7.992972573404868,8.391327921348378
2255,-9.91942540849105,10.017680859868511
2256,-6.832530137308099,10.341191893805075
2257,-10.774132269070002,9.273156662654877
2258,-8.530128713852665,9.258522251820843
2259,-7.075373888110339,8.266443848014076
2260,-7.741145229428421,8.132983903937717
2261,-9.17575614488569,7.693744592043827
2262,-6.937066736674999,7.078573164310069
2263,-9.015185456955235,8.04256615170985
2264,-7.905626193669382,6.980133494289237
2265,-10.949904081714848,9.973961069300657
2266,-9.019153801011825,8.599403416922927
2267,-8.464503385285159,7.488104793188993
2268,-5.153305863857739,6.62968981677283
2269,-3.535633462244811,2.4346973530257223
2270,-3.3217803059496065,3.2649538453982716
2271,-3.902371498618079,4.715661511970223
2272,-4.770126021021184,5.266318400640687
2273,-3.1658819541501506,4.910130041460497
2274,-6.76186887872516,4.379377002715934
2275,-5.973912884295267,7.335349596338938
2276,-8.185837861106076,11.15598129679643
2277,-12.59942089733078,11.59392408178778
2278,-12.761088949099147,13.804585306232187
2279,-12.814640761510796,14.663608299011882
2280,-12.2954625093155,10.157772482356615
2281,-11.076986572218468,10.372405105892023
2282,-8.466812746271591,9.210719206845035
2283,-4.466825208738347,5.402210160143162
2284,-4.135847652563376,2.883516340829286
2285,-3.3577003920564037,3.911555225440575
2286,-2.6383348226828978,2.9907297082456776
2287,-3.9256537844892705,2.7717168218522903
2288,-4.018901701129076,2.149079472592616
2289,-5.714846543549119,5.49702389276118
2290,-5.8500389707758655,5.786286166838296
2291,-5.482325237501244,5.587543528155199
2292,-5.381918523805754,5.221779770904205
2293,-3.9241315183445713,5.2250178825637414
2294,-4.917087076778279,3.968387576932111
2295,-3.208003767547054,3.848934006324373
2296,1.3803508431291496,-0.07337773056635666
2297,-0.18336230178475746,-3.0296244641838492
2298,1.4859392287930027,-0.7946890409796888
2299,-1.1697095625847118,2.5016615095073025
2300,-3.4723678901756263,1.886193248731719
2301,-3.2179465937332328,3.329468149314766
2302,-2.84273747874034,5.453346573837617
2303,-3.0583983925946185,4.750467271000418
2304,-4.3439129914794625,3.329235193213608
2305,-3.2287165821398367,2.986078840305327
2306,-4.312537943592093,2.4736822363903213
2307,-0.13201771773423165,1.0248840230767762
2308,-0.6973001745225594,0.5760657315417943
2309,0.9284638687526439,-0.7813515240719693
2310,-0.5828709488748861,1.4053280268510038
2311,-2.611501628710007,1.6018246870648287
2312,-4.369684990085306,2.5658851861869083
2313,-4.150712928956748,4.4928331100234296
2314,-2.5683967351601242,3.325792639538783
2315,-4.107591391313003,5.852970970423359
2316,-4.673102304049702,4.196773203781427
2317,-1.4771912961263716,2.607766704504583
2318,1.3294431336224248,2.5067077597004084
2319,1.397846700240531,-1.2958774505531852
2320,5.1176370464259335,-5.977252315604817
2321,5.804138459092439,-6.952333877365881
2322,6.072658347177411,-4.377848350166866
2323,1.0578989052552612,-1.3618423842262435
2324,2.5233282413963636,-2.092624890036902
2325,3.568514673281092,-2.42565938791387
2326,0.3777790214312129,-1.5253112598517269
2327,0.3418927066185056,0.6557319704835968
2328,-2.8967148453215485,2.4251689327413843
2329,-4.875223021210015,4.231347348143526
2330,-7.041473963234961,5.938126490782078
2331,-6.824051507553115,7.239567271072504
2332,-6.923017806181172,6.1302875075835805
2333,-5.920696947982322,3.9536409267286623
2334,-2.901645076557153,3.061733181057268
2335,-0.8966422040200189,1.1902661121564826
2336,1.4113007767033807,-0.5498948832099904
2337,-0.1832729895762832,2.2679856463944783
2338,-2.2085739589968454,-1.1320706052685443
2339,-2.7664432017482175,1.7578486835556848
2340,-2.229784681162106,0.16649114981880608
2341,-3.2945350134913487,2.878707477856631
2342,-2.2082706291386973,2.348007689876883
2343,-4.939253224654169,4.824186665386605
2344,-4.340920706879706,6.301210717029863
2345,-7.089798636277575,7.3133361260045415
2346,-5.789526094012419,5.998722856551107
2347,-1.5562793350927406,2.9183031313783667
2348,-2.271590530391029,-0.7471352281420153
2349,-1.2930581564154886,-2.3472795728853653
2350,0.24991289365199046,0.024749775889154085
2351,0.17833846324202138,1.608022224495298
